{"learner":{"attributes":{},"feature_names":["air_yards","air_epa","yac_epa","yards_gained","tot_rush_epa","tot_pass_epa","Def Rush EPA","Def Pass EPA","pass_epa","rush_epa","o_ints","o_forced_fumble","o_tac_for_loss","o_sacks","qb_hit","is_home"],"feature_types":["float","float","float","float","float","float","float","float","float","float","float","float","float","float","float","int"],"gradient_booster":{"model":{"gbtree_model_param":{"num_parallel_tree":"1","num_trees":"1049"},"iteration_indptr":[0,1,2,3,4,5,6,7,8,9,10,11,12,13,14,15,16,17,18,19,20,21,22,23,24,25,26,27,28,29,30,31,32,33,34,35,36,37,38,39,40,41,42,43,44,45,46,47,48,49,50,51,52,53,54,55,56,57,58,59,60,61,62,63,64,65,66,67,68,69,70,71,72,73,74,75,76,77,78,79,80,81,82,83,84,85,86,87,88,89,90,91,92,93,94,95,96,97,98,99,100,101,102,103,104,105,106,107,108,109,110,111,112,113,114,115,116,117,118,119,120,121,122,123,124,125,126,127,128,129,130,131,132,133,134,135,136,137,138,139,140,141,142,143,144,145,146,147,148,149,150,151,152,153,154,155,156,157,158,159,160,161,162,163,164,165,166,167,168,169,170,171,172,173,174,175,176,177,178,179,180,181,182,183,184,185,186,187,188,189,190,191,192,193,194,195,196,197,198,199,200,201,202,203,204,205,206,207,208,209,210,211,212,213,214,215,216,217,218,219,220,221,222,223,224,225,226,227,228,229,230,231,232,233,234,235,236,237,238,239,240,241,242,243,244,245,246,247,248,249,250,251,252,253,254,255,256,257,258,259,260,261,262,263,264,265,266,267,268,269,270,271,272,273,274,275,276,277,278,279,280,281,282,283,284,285,286,287,288,289,290,291,292,293,294,295,296,297,298,299,300,301,302,303,304,305,306,307,308,309,310,311,312,313,314,315,316,317,318,319,320,321,322,323,324,325,326,327,328,329,330,331,332,333,334,335,336,337,338,339,340,341,342,343,344,345,346,347,348,349,350,351,352,353,354,355,356,357,358,359,360,361,362,363,364,365,366,367,368,369,370,371,372,373,374,375,376,377,378,379,380,381,382,383,384,385,386,387,388,389,390,391,392,393,394,395,396,397,398,399,400,401,402,403,404,405,406,407,408,409,410,411,412,413,414,415,416,417,418,419,420,421,422,423,424,425,426,427,428,429,430,431,432,433,434,435,436,437,438,439,440,441,442,443,444,445,446,447,448,449,450,451,452,453,454,455,456,457,458,459,460,461,462,463,464,465,466,467,468,469,470,471,472,473,474,475,476,477,478,479,480,481,482,483,484,485,486,487,488,489,490,491,492,493,494,495,496,497,498,499,500,501,502,503,504,505,506,507,508,509,510,511,512,513,514,515,516,517,518,519,520,521,522,523,524,525,526,527,528,529,530,531,532,533,534,535,536,537,538,539,540,541,542,543,544,545,546,547,548,549,550,551,552,553,554,555,556,557,558,559,560,561,562,563,564,565,566,567,568,569,570,571,572,573,574,575,576,577,578,579,580,581,582,583,584,585,586,587,588,589,590,591,592,593,594,595,596,597,598,599,600,601,602,603,604,605,606,607,608,609,610,611,612,613,614,615,616,617,618,619,620,621,622,623,624,625,626,627,628,629,630,631,632,633,634,635,636,637,638,639,640,641,642,643,644,645,646,647,648,649,650,651,652,653,654,655,656,657,658,659,660,661,662,663,664,665,666,667,668,669,670,671,672,673,674,675,676,677,678,679,680,681,682,683,684,685,686,687,688,689,690,691,692,693,694,695,696,697,698,699,700,701,702,703,704,705,706,707,708,709,710,711,712,713,714,715,716,717,718,719,720,721,722,723,724,725,726,727,728,729,730,731,732,733,734,735,736,737,738,739,740,741,742,743,744,745,746,747,748,749,750,751,752,753,754,755,756,757,758,759,760,761,762,763,764,765,766,767,768,769,770,771,772,773,774,775,776,777,778,779,780,781,782,783,784,785,786,787,788,789,790,791,792,793,794,795,796,797,798,799,800,801,802,803,804,805,806,807,808,809,810,811,812,813,814,815,816,817,818,819,820,821,822,823,824,825,826,827,828,829,830,831,832,833,834,835,836,837,838,839,840,841,842,843,844,845,846,847,848,849,850,851,852,853,854,855,856,857,858,859,860,861,862,863,864,865,866,867,868,869,870,871,872,873,874,875,876,877,878,879,880,881,882,883,884,885,886,887,888,889,890,891,892,893,894,895,896,897,898,899,900,901,902,903,904,905,906,907,908,909,910,911,912,913,914,915,916,917,918,919,920,921,922,923,924,925,926,927,928,929,930,931,932,933,934,935,936,937,938,939,940,941,942,943,944,945,946,947,948,949,950,951,952,953,954,955,956,957,958,959,960,961,962,963,964,965,966,967,968,969,970,971,972,973,974,975,976,977,978,979,980,981,982,983,984,985,986,987,988,989,990,991,992,993,994,995,996,997,998,999,1000,1001,1002,1003,1004,1005,1006,1007,1008,1009,1010,1011,1012,1013,1014,1015,1016,1017,1018,1019,1020,1021,1022,1023,1024,1025,1026,1027,1028,1029,1030,1031,1032,1033,1034,1035,1036,1037,1038,1039,1040,1041,1042,1043,1044,1045,1046,1047,1048,1049],"tree_info":[0,0,0,0,0,0,0,0,0,0,0,0,0,0,0,0,0,0,0,0,0,0,0,0,0,0,0,0,0,0,0,0,0,0,0,0,0,0,0,0,0,0,0,0,0,0,0,0,0,0,0,0,0,0,0,0,0,0,0,0,0,0,0,0,0,0,0,0,0,0,0,0,0,0,0,0,0,0,0,0,0,0,0,0,0,0,0,0,0,0,0,0,0,0,0,0,0,0,0,0,0,0,0,0,0,0,0,0,0,0,0,0,0,0,0,0,0,0,0,0,0,0,0,0,0,0,0,0,0,0,0,0,0,0,0,0,0,0,0,0,0,0,0,0,0,0,0,0,0,0,0,0,0,0,0,0,0,0,0,0,0,0,0,0,0,0,0,0,0,0,0,0,0,0,0,0,0,0,0,0,0,0,0,0,0,0,0,0,0,0,0,0,0,0,0,0,0,0,0,0,0,0,0,0,0,0,0,0,0,0,0,0,0,0,0,0,0,0,0,0,0,0,0,0,0,0,0,0,0,0,0,0,0,0,0,0,0,0,0,0,0,0,0,0,0,0,0,0,0,0,0,0,0,0,0,0,0,0,0,0,0,0,0,0,0,0,0,0,0,0,0,0,0,0,0,0,0,0,0,0,0,0,0,0,0,0,0,0,0,0,0,0,0,0,0,0,0,0,0,0,0,0,0,0,0,0,0,0,0,0,0,0,0,0,0,0,0,0,0,0,0,0,0,0,0,0,0,0,0,0,0,0,0,0,0,0,0,0,0,0,0,0,0,0,0,0,0,0,0,0,0,0,0,0,0,0,0,0,0,0,0,0,0,0,0,0,0,0,0,0,0,0,0,0,0,0,0,0,0,0,0,0,0,0,0,0,0,0,0,0,0,0,0,0,0,0,0,0,0,0,0,0,0,0,0,0,0,0,0,0,0,0,0,0,0,0,0,0,0,0,0,0,0,0,0,0,0,0,0,0,0,0,0,0,0,0,0,0,0,0,0,0,0,0,0,0,0,0,0,0,0,0,0,0,0,0,0,0,0,0,0,0,0,0,0,0,0,0,0,0,0,0,0,0,0,0,0,0,0,0,0,0,0,0,0,0,0,0,0,0,0,0,0,0,0,0,0,0,0,0,0,0,0,0,0,0,0,0,0,0,0,0,0,0,0,0,0,0,0,0,0,0,0,0,0,0,0,0,0,0,0,0,0,0,0,0,0,0,0,0,0,0,0,0,0,0,0,0,0,0,0,0,0,0,0,0,0,0,0,0,0,0,0,0,0,0,0,0,0,0,0,0,0,0,0,0,0,0,0,0,0,0,0,0,0,0,0,0,0,0,0,0,0,0,0,0,0,0,0,0,0,0,0,0,0,0,0,0,0,0,0,0,0,0,0,0,0,0,0,0,0,0,0,0,0,0,0,0,0,0,0,0,0,0,0,0,0,0,0,0,0,0,0,0,0,0,0,0,0,0,0,0,0,0,0,0,0,0,0,0,0,0,0,0,0,0,0,0,0,0,0,0,0,0,0,0,0,0,0,0,0,0,0,0,0,0,0,0,0,0,0,0,0,0,0,0,0,0,0,0,0,0,0,0,0,0,0,0,0,0,0,0,0,0,0,0,0,0,0,0,0,0,0,0,0,0,0,0,0,0,0,0,0,0,0,0,0,0,0,0,0,0,0,0,0,0,0,0,0,0,0,0,0,0,0,0,0,0,0,0,0,0,0,0,0,0,0,0,0,0,0,0,0,0,0,0,0,0,0,0,0,0,0,0,0,0,0,0,0,0,0,0,0,0,0,0,0,0,0,0,0,0,0,0,0,0,0,0,0,0,0,0,0,0,0,0,0,0,0,0,0,0,0,0,0,0,0,0,0,0,0,0,0,0,0,0,0,0,0,0,0,0,0,0,0,0,0,0,0,0,0,0,0,0,0,0,0,0,0,0,0,0,0,0,0,0,0,0,0,0,0,0,0,0,0,0,0,0,0,0,0,0,0,0,0,0,0,0,0,0,0,0,0,0,0,0,0,0,0,0,0,0,0,0,0,0,0,0,0,0,0,0,0,0,0,0,0,0,0,0,0,0,0,0,0,0,0,0,0,0,0,0,0,0,0,0,0,0,0,0,0,0,0,0,0,0,0,0,0,0,0,0,0,0,0,0,0,0,0,0,0,0,0,0,0,0,0,0,0,0,0,0,0,0,0,0,0,0,0,0,0,0,0,0,0,0,0,0,0,0,0,0,0,0,0,0,0,0,0,0,0,0,0,0,0,0,0,0,0,0,0,0,0,0,0,0,0,0,0,0,0,0,0,0,0,0,0,0,0,0,0,0,0,0,0,0,0,0,0,0,0,0,0,0,0,0,0,0,0],"trees":[{"base_weights":[5.795651E-2,-5.839836E0,6.1093445E0,-1.0750028E1,-3.2386532E0,3.7333145E0,1.1647299E1,-1.198562E1,-3.5120518E0,-5.977554E0,-5.047877E-1,9.476596E-1,5.858659E0,9.263902E0,1.4740007E1,-9.7213365E-2,-6.532734E-2,-3.6782265E-2,1.4205749E-2,-6.1175875E-2,-3.2412928E-2,-1.127969E-2,2.454137E-2,-4.6605244E-3,2.218441E-2,3.543517E-2,9.696262E-2,5.8251187E-2,9.5461585E-2,9.144458E-2,1.386704E-1],"categories":[],"categories_nodes":[],"categories_segments":[],"categories_sizes":[],"default_left":[0,0,0,0,0,0,0,0,0,0,0,0,0,0,0,0,0,0,0,0,0,0,0,0,0,0,0,0,0,0,0],"id":0,"left_children":[1,3,5,7,9,11,13,15,17,19,21,23,25,27,29,-1,-1,-1,-1,-1,-1,-1,-1,-1,-1,-1,-1,-1,-1,-1,-1],"loss_changes":[1.1682671E5,2.1141504E4,2.1222082E4,5.093789E3,8.1166416E3,6.6929385E3,3.4662266E3,2.3698047E3,8.2680725E2,1.98075E3,2.4160054E3,1.7615157E3,4.0273535E3,1.0466426E3,1.5867578E3,0E0,0E0,0E0,0E0,0E0,0E0,0E0,0E0,0E0,0E0,0E0,0E0,0E0,0E0,0E0,0E0],"parents":[2147483647,0,0,1,1,2,2,3,3,4,4,5,5,6,6,7,7,8,8,9,9,10,10,11,11,12,12,13,13,14,14],"right_children":[2,4,6,8,10,12,14,16,18,20,22,24,26,28,30,-1,-1,-1,-1,-1,-1,-1,-1,-1,-1,-1,-1,-1,-1,-1,-1],"split_conditions":[8.35452E-2,-1.9694656E-1,3.6658147E-1,-3.5634537E0,-9.82618E-2,-1.253916E-1,-3.4803398E-2,-8.1804246E-2,4.0625E0,-8.666114E-2,5.151846E0,2.1082185E-1,2.2322046E1,2.7745771E1,6.09114E-1,-9.7213365E-2,-6.532734E-2,-3.6782265E-2,1.4205749E-2,-6.1175875E-2,-3.2412928E-2,-1.127969E-2,2.454137E-2,-4.6605244E-3,2.218441E-2,3.543517E-2,9.696262E-2,5.8251187E-2,9.5461585E-2,9.144458E-2,1.386704E-1],"split_indices":[7,7,7,5,6,6,6,6,3,7,5,7,5,5,7,0,0,0,0,0,0,0,0,0,0,0,0,0,0,0,0],"split_type":[0,0,0,0,0,0,0,0,0,0,0,0,0,0,0,0,0,0,0,0,0,0,0,0,0,0,0,0,0,0,0],"sum_hessian":[3.272E3,1.657E3,1.615E3,5.73E2,1.084E3,1.131E3,4.84E2,4.89E2,8.4E1,5.41E2,5.43E2,4.9E2,6.41E2,2.75E2,2.09E2,2.83E2,2.06E2,6.4E1,2E1,1.76E2,3.65E2,4.26E2,1.17E2,2.84E2,2.06E2,5.84E2,5.7E1,2.28E2,4.7E1,1.59E2,5E1],"tree_param":{"num_deleted":"0","num_feature":"16","num_nodes":"31","size_leaf_vector":"1"}},{"base_weights":[-1.401564E-1,-5.7915E0,6.061331E0,-9.731583E0,-2.5349894E0,2.8484597E0,9.990951E0,-1.2073563E1,-6.9334073E0,-5.192299E0,2.4067426E-1,9.497653E-2,4.747269E0,9.019947E0,1.770286E1,-1.09332405E-1,-7.6219425E-2,-8.2387514E-2,-3.9997235E-2,-4.9970858E-2,-2.9786814E-2,-4.8909616E-3,1.5903842E-2,-4.0834937E-3,2.1827472E-2,2.5334727E-2,5.2573215E-2,5.278142E-2,9.4351895E-2,1.0891119E-1,1.6411611E-1],"categories":[],"categories_nodes":[],"categories_segments":[],"categories_sizes":[],"default_left":[0,0,0,0,0,0,0,0,0,0,0,0,0,0,0,0,0,0,0,0,0,0,0,0,0,0,0,0,0,0,0],"id":1,"left_children":[1,3,5,7,9,11,13,15,17,19,21,23,25,27,29,-1,-1,-1,-1,-1,-1,-1,-1,-1,-1,-1,-1,-1,-1,-1,-1],"loss_changes":[1.1472138E5,2.195225E4,1.967823E4,5.009336E3,6.926929E3,4.492052E3,5.130586E3,1.6365547E3,2.0366641E3,8.4818945E2,8.790533E2,7.237549E2,1.5612119E3,4.0408945E3,6.8447266E2,0E0,0E0,0E0,0E0,0E0,0E0,0E0,0E0,0E0,0E0,0E0,0E0,0E0,0E0,0E0,0E0],"parents":[2147483647,0,0,1,1,2,2,3,3,4,4,5,5,6,6,7,7,8,8,9,9,10,10,11,11,12,12,13,13,14,14],"right_children":[2,4,6,8,10,12,14,16,18,20,22,24,26,28,30,-1,-1,-1,-1,-1,-1,-1,-1,-1,-1,-1,-1,-1,-1,-1,-1],"split_conditions":[8.686657E-2,-1.354698E-1,2.8520274E-1,-9.82618E-2,-9.82618E-2,-1.4263609E-1,6.3920784E-1,-4.0864387E-1,-4.0864387E-1,-6.1061017E-2,1.0168832E-1,3.97E2,8.867165E-2,5.9240617E-2,8.828434E-1,-1.09332405E-1,-7.6219425E-2,-8.2387514E-2,-3.9997235E-2,-4.9970858E-2,-2.9786814E-2,-4.8909616E-3,1.5903842E-2,-4.0834937E-3,2.1827472E-2,2.5334727E-2,5.2573215E-2,5.278142E-2,9.4351895E-2,1.0891119E-1,1.6411611E-1],"split_indices":[7,7,7,6,6,6,7,7,7,7,6,0,6,6,7,0,0,0,0,0,0,0,0,0,0,0,0,0,0,0,0],"split_type":[0,0,0,0,0,0,0,0,0,0,0,0,0,0,0,0,0,0,0,0,0,0,0,0,0,0,0,0,0,0,0],"sum_hessian":[3.272E3,1.712E3,1.56E3,7.74E2,9.38E2,8.59E2,7.01E2,4.2E2,3.54E2,4.79E2,4.59E2,3.51E2,5.08E2,6.24E2,7.7E1,1.03E2,3.17E2,7E1,2.84E2,1.54E2,3.25E2,3.14E2,1.45E2,2.87E2,6.4E1,3.62E2,1.46E2,4.7E2,1.54E2,5.8E1,1.9E1],"tree_param":{"num_deleted":"0","num_feature":"16","num_nodes":"31","size_leaf_vector":"1"}},{"base_weights":[1.4091604E-2,-5.7050395E0,6.079882E0,-1.0521737E1,-3.0810814E0,3.5974605E0,1.0696154E1,-1.2795264E1,-7.597907E0,-5.658195E0,-5.085418E-1,6.431524E-1,5.4950967E0,8.900942E0,1.4852916E1,-9.9336065E-2,-7.109715E-2,-8.214811E-2,-4.417112E-2,-6.032312E-2,-3.171973E-2,-1.2500263E-2,1.5131408E-2,-4.627581E-3,2.001366E-2,2.4658011E-2,5.2529443E-2,5.7305332E-2,1.08264044E-1,9.53312E-2,1.4700074E-1],"categories":[],"categories_nodes":[],"categories_segments":[],"categories_sizes":[],"default_left":[0,0,0,0,0,0,0,0,0,0,0,0,0,0,0,0,0,0,0,0,0,0,0,0,0,0,0,0,0,0,0],"id":2,"left_children":[1,3,5,7,9,11,13,15,17,19,21,23,25,27,29,-1,-1,-1,-1,-1,-1,-1,-1,-1,-1,-1,-1,-1,-1,-1,-1],"loss_changes":[1.1449403E5,2.144025E4,1.8320898E4,3.9022734E3,7.292242E3,5.8400547E3,4.0731914E3,1.1241914E3,1.3447217E3,1.799457E3,1.883965E3,1.1835674E3,2.4915098E3,1.7425488E3,1.0568984E3,0E0,0E0,0E0,0E0,0E0,0E0,0E0,0E0,0E0,0E0,0E0,0E0,0E0,0E0,0E0,0E0],"parents":[2147483647,0,0,1,1,2,2,3,3,4,4,5,5,6,6,7,7,8,8,9,9,10,10,11,11,12,12,13,13,14,14],"right_children":[2,4,6,8,10,12,14,16,18,20,22,24,26,28,30,-1,-1,-1,-1,-1,-1,-1,-1,-1,-1,-1,-1,-1,-1,-1,-1],"split_conditions":[8.686657E-2,-1.9190198E-1,3.3862337E-1,-8.6738974E-2,-9.6913055E-2,-1.4263609E-1,2.3032367E-2,3.3333333E0,-4.1682482E-1,-9.56464E-2,5.8796315E0,2.1759294E-1,4.5617976E0,6.68587E-1,2.5084564E-1,-9.9336065E-2,-7.109715E-2,-8.214811E-2,-4.417112E-2,-6.032312E-2,-3.171973E-2,-1.2500263E-2,1.5131408E-2,-4.627581E-3,2.001366E-2,2.4658011E-2,5.2529443E-2,5.7305332E-2,1.08264044E-1,9.53312E-2,1.4700074E-1],"split_indices":[7,7,7,6,6,6,6,3,7,7,4,7,3,7,6,0,0,0,0,0,0,0,0,0,0,0,0,0,0,0,0],"split_type":[0,0,0,0,0,0,0,0,0,0,0,0,0,0,0,0,0,0,0,0,0,0,0,0,0,0,0,0,0,0,0],"sum_hessian":[3.299E3,1.698E3,1.601E3,5.98E2,1.1E3,1.042E3,5.59E2,3.35E2,2.63E2,5.49E2,5.51E2,4.08E2,6.34E2,3.92E2,1.67E2,2.17E2,1.18E2,6.1E1,2.02E2,1.5E2,3.99E2,3.73E2,1.78E2,2.57E2,1.51E2,3.21E2,3.13E2,3.55E2,3.7E1,1.41E2,2.6E1],"tree_param":{"num_deleted":"0","num_feature":"16","num_nodes":"31","size_leaf_vector":"1"}},{"base_weights":[6.742204E-2,-5.8400044E0,5.5670366E0,-1.0928974E1,-3.131638E0,2.4532135E0,9.682573E0,-1.3049199E1,-8.126209E0,-5.847983E0,-4.3601847E-1,-2.7714238E-1,4.3082714E0,7.8890166E0,1.4028793E1,-1.1883805E-1,-8.4150225E-2,-7.270949E-2,-4.3477405E-2,-5.3173132E-2,-3.04474E-2,-1.5983824E-2,8.929627E-3,-1.7982382E-2,3.1245893E-3,2.3700994E-2,5.0584354E-2,4.523602E-2,7.858353E-2,8.8412516E-2,1.3997577E-1],"categories":[],"categories_nodes":[],"categories_segments":[],"categories_sizes":[],"default_left":[0,0,0,0,0,0,0,0,0,0,0,0,0,0,0,0,0,0,0,0,0,0,0,0,0,0,0,0,0,0,0],"id":3,"left_children":[1,3,5,7,9,11,13,15,17,19,21,23,25,27,29,-1,-1,-1,-1,-1,-1,-1,-1,-1,-1,-1,-1,-1,-1,-1,-1],"loss_changes":[1.0806939E5,2.2072684E4,2.2053926E4,3.2241562E3,7.6665674E3,4.975071E3,5.694078E3,1.1185352E3,9.9356836E2,1.3376992E3,1.6679901E3,6.612712E2,1.551581E3,2.4486914E3,1.6088828E3,0E0,0E0,0E0,0E0,0E0,0E0,0E0,0E0,0E0,0E0,0E0,0E0,0E0,0E0,0E0,0E0],"parents":[2147483647,0,0,1,1,2,2,3,3,4,4,5,5,6,6,7,7,8,8,9,9,10,10,11,11,12,12,13,13,14,14],"right_children":[2,4,6,8,10,12,14,16,18,20,22,24,26,28,30,-1,-1,-1,-1,-1,-1,-1,-1,-1,-1,-1,-1,-1,-1,-1,-1],"split_conditions":[6.614536E-2,-2.0797774E-1,2.8520274E-1,-8.863147E-2,-9.82618E-2,-1.4263609E-1,3.475251E-2,-4.6347615E-1,-3.2986447E-1,-6.1061017E-2,-6.1061017E-2,1.0945077E-1,4.9719625E0,4.9036667E-1,5.839628E-1,-1.1883805E-1,-8.4150225E-2,-7.270949E-2,-4.3477405E-2,-5.3173132E-2,-3.04474E-2,-1.5983824E-2,8.929627E-3,-1.7982382E-2,3.1245893E-3,2.3700994E-2,5.0584354E-2,4.523602E-2,7.858353E-2,8.8412516E-2,1.3997577E-1],"split_indices":[7,7,7,6,6,6,6,7,7,7,7,7,3,7,7,0,0,0,0,0,0,0,0,0,0,0,0,0,0,0,0],"split_type":[0,0,0,0,0,0,0,0,0,0,0,0,0,0,0,0,0,0,0,0,0,0,0,0,0,0,0,0,0,0,0],"sum_hessian":[3.325E3,1.603E3,1.722E3,5.56E2,1.047E3,9.81E2,7.41E2,3.15E2,2.41E2,5.21E2,5.26E2,3.97E2,5.84E2,5.26E2,2.15E2,6.3E1,2.52E2,1.09E2,1.32E2,2.39E2,2.82E2,2.53E2,2.73E2,9.5E1,3.02E2,4.45E2,1.39E2,3.7E2,1.56E2,1.76E2,3.9E1],"tree_param":{"num_deleted":"0","num_feature":"16","num_nodes":"31","size_leaf_vector":"1"}},{"base_weights":[-2.1127E-3,-5.460883E0,5.910758E0,-9.957025E0,-2.8629293E0,2.8371232E0,9.710875E0,-1.1213236E1,-2.2154818E0,-5.41025E0,-3.4358668E-1,1.9479999E-1,4.8815813E0,7.1856046E0,1.290972E1,-9.202876E-2,-5.958983E-2,-2.5916284E-2,9.208895E-3,-5.9716877E-2,-2.81001E-2,-8.354117E-3,2.1155419E-2,-4.9481243E-3,1.8473582E-2,2.2497931E-2,4.7775652E-2,4.360031E-2,8.245862E-2,7.800837E-2,1.2178243E-1],"categories":[],"categories_nodes":[],"categories_segments":[],"categories_sizes":[],"default_left":[0,0,0,0,0,0,0,0,0,0,0,0,0,0,0,0,0,0,0,0,0,0,0,0,0,0,0,0,0,0,0],"id":4,"left_children":[1,3,5,7,9,11,13,15,17,19,21,23,25,27,29,-1,-1,-1,-1,-1,-1,-1,-1,-1,-1,-1,-1,-1,-1,-1,-1],"loss_changes":[1.0662317E5,2.0037867E4,1.8495855E4,6.090172E3,6.989043E3,4.738224E3,5.6505312E3,2.735125E3,4.7020566E2,2.329871E3,1.5710977E3,8.478904E2,1.5831123E3,1.6887246E3,2.321336E3,0E0,0E0,0E0,0E0,0E0,0E0,0E0,0E0,0E0,0E0,0E0,0E0,0E0,0E0,0E0,0E0],"parents":[2147483647,0,0,1,1,2,2,3,3,4,4,5,5,6,6,7,7,8,8,9,9,10,10,11,11,12,12,13,13,14,14],"right_children":[2,4,6,8,10,12,14,16,18,20,22,24,26,28,30,-1,-1,-1,-1,-1,-1,-1,-1,-1,-1,-1,-1,-1,-1,-1,-1],"split_conditions":[8.686657E-2,-1.8040192E-1,2.8520274E-1,-1.902376E0,-1.0187228E-1,-1.312349E-1,-3.672412E-2,-8.6738974E-2,4.7476463E0,-8.336613E-2,5.2804375E0,2.1759294E-1,4.5617976E0,2.4407467E1,8.279098E0,-9.202876E-2,-5.958983E-2,-2.5916284E-2,9.208895E-3,-5.9716877E-2,-2.81001E-2,-8.354117E-3,2.1155419E-2,-4.9481243E-3,1.8473582E-2,2.2497931E-2,4.7775652E-2,4.360031E-2,8.245862E-2,7.800837E-2,1.2178243E-1],"split_indices":[7,7,7,5,6,6,6,6,4,7,5,7,3,5,4,0,0,0,0,0,0,0,0,0,0,0,0,0,0,0,0],"split_type":[0,0,0,0,0,0,0,0,0,0,0,0,0,0,0,0,0,0,0,0,0,0,0,0,0,0,0,0,0,0,0],"sum_hessian":[3.302E3,1.717E3,1.585E3,6.28E2,1.089E3,8.77E2,7.08E2,5.4E2,8.8E1,5.41E2,5.48E2,3.83E2,4.94E2,3.97E2,3.11E2,3.13E2,2.27E2,6.2E1,2.6E1,1.66E2,3.75E2,4.38E2,1.1E2,2.8E2,1.03E2,2.67E2,2.27E2,3.3E2,6.7E1,2.25E2,8.6E1],"tree_param":{"num_deleted":"0","num_feature":"16","num_nodes":"31","size_leaf_vector":"1"}},{"base_weights":[1.6381139E-1,-5.3824067E0,5.904248E0,-1.0335767E1,-2.9004433E0,2.8506515E0,9.657825E0,-1.1672105E1,-2.5849361E0,-3.8653667E0,9.527941E-1,2.5104177E0,7.3573856E0,8.35151E0,1.5043678E1,-1.0523156E-1,-7.538588E-2,3.405879E-3,-3.791127E-2,-4.152696E-2,-1.8210145E-2,-3.6602674E-4,2.5432853E-2,1.2666007E-2,2.9211665E-2,4.155979E-2,8.472223E-2,4.5378663E-2,6.825491E-2,9.680456E-2,1.7398548E-1],"categories":[],"categories_nodes":[],"categories_segments":[],"categories_sizes":[],"default_left":[0,0,0,0,0,0,0,0,0,0,0,0,0,0,0,0,0,0,0,0,0,0,0,0,0,0,0,0,0,0,0],"id":5,"left_children":[1,3,5,7,9,11,13,15,17,19,21,23,25,27,29,-1,-1,-1,-1,-1,-1,-1,-1,-1,-1,-1,-1,-1,-1,-1,-1],"loss_changes":[1.0558635E5,2.0708969E4,1.8654113E4,5.8002344E3,4.1856943E3,1.3618452E3,5.0422266E3,1.3303828E3,7.3200275E2,2.3355996E3,6.0994653E2,9.681455E2,3.638318E2,1.4901172E3,1.4309883E3,0E0,0E0,0E0,0E0,0E0,0E0,0E0,0E0,0E0,0E0,0E0,0E0,0E0,0E0,0E0,0E0],"parents":[2147483647,0,0,1,1,2,2,3,3,4,4,5,5,6,6,7,7,8,8,9,9,10,10,11,11,12,12,13,13,14,14],"right_children":[2,4,6,8,10,12,14,16,18,20,22,24,26,28,30,-1,-1,-1,-1,-1,-1,-1,-1,-1,-1,-1,-1,-1,-1,-1,-1],"split_conditions":[8.35452E-2,-1.9694656E-1,2.8520274E-1,-3.5634537E0,5.641001E0,2.1592512E1,2.502282E1,-4.6347615E-1,3E0,-8.666114E-2,1.5806824E1,2.1082185E-1,3.0208952E1,3.7533087E-1,8.828434E-1,-1.0523156E-1,-7.538588E-2,3.405879E-3,-3.791127E-2,-4.152696E-2,-1.8210145E-2,-3.6602674E-4,2.5432853E-2,1.2666007E-2,2.9211665E-2,4.155979E-2,8.472223E-2,4.5378663E-2,6.825491E-2,9.680456E-2,1.7398548E-1],"split_indices":[7,7,7,5,5,5,5,7,13,7,5,7,5,7,7,0,0,0,0,0,0,0,0,0,0,0,0,0,0,0,0],"split_type":[0,0,0,0,0,0,0,0,0,0,0,0,0,0,0,0,0,0,0,0,0,0,0,0,0,0,0,0,0,0,0],"sum_hessian":[3.315E3,1.686E3,1.629E3,5.62E2,1.124E3,8.99E2,7.3E2,4.79E2,8.3E1,8.99E2,2.25E2,8.37E2,6.2E1,5.89E2,1.41E2,9.9E1,3.8E2,4E1,4.3E1,3.4E2,5.59E2,1.64E2,6.1E1,5.9E2,2.47E2,4.9E1,1.3E1,2.54E2,3.35E2,1.27E2,1.4E1],"tree_param":{"num_deleted":"0","num_feature":"16","num_nodes":"31","size_leaf_vector":"1"}},{"base_weights":[5.8994956E-2,-5.7722187E0,5.5094395E0,-9.770247E0,-3.2436435E0,2.48381E0,9.602348E0,-1.1205324E1,-3.0135124E0,-5.7883534E0,-6.880678E-1,8.273363E-1,5.937818E0,8.160937E0,1.4845828E1,-9.301319E-2,-6.4312235E-2,-3.417676E-2,2.4226602E-2,-5.4478403E-2,-2.9543735E-2,-1.2191462E-2,2.1815833E-2,3.0818924E-3,4.0555485E-2,3.4080602E-2,6.819014E-2,4.8552256E-2,9.340629E-2,9.1180705E-2,1.3110599E-1],"categories":[],"categories_nodes":[],"categories_segments":[],"categories_sizes":[],"default_left":[0,0,0,0,0,0,0,0,0,0,0,0,0,0,0,0,0,0,0,0,0,0,0,0,0,0,0,0,0,0,0],"id":6,"left_children":[1,3,5,7,9,11,13,15,17,19,21,23,25,27,29,-1,-1,-1,-1,-1,-1,-1,-1,-1,-1,-1,-1,-1,-1,-1,-1],"loss_changes":[1.0445011E5,1.6022078E4,2.1013457E4,5.929879E3,6.3261455E3,5.587083E3,5.3591953E3,2.0332539E3,1.3275964E3,1.4961406E3,1.9539518E3,1.2671041E3,1.2477842E3,3.5297734E3,9.0860547E2,0E0,0E0,0E0,0E0,0E0,0E0,0E0,0E0,0E0,0E0,0E0,0E0,0E0,0E0,0E0,0E0],"parents":[2147483647,0,0,1,1,2,2,3,3,4,4,5,5,6,6,7,7,8,8,9,9,10,10,11,11,12,12,13,13,14,14],"right_children":[2,4,6,8,10,12,14,16,18,20,22,24,26,28,30,-1,-1,-1,-1,-1,-1,-1,-1,-1,-1,-1,-1,-1,-1,-1,-1],"split_conditions":[6.614536E-2,-1.8040192E-1,2.8520274E-1,-3.5634537E0,-9.82618E-2,-1.1753289E-2,7.655742E-2,-3.2026708E-1,6.0528655E0,-6.1061017E-2,4.6886206E0,2.1592512E1,1.3000162E1,5.6588113E-1,1.8927485E1,-9.301319E-2,-6.4312235E-2,-3.417676E-2,2.4226602E-2,-5.4478403E-2,-2.9543735E-2,-1.2191462E-2,2.1815833E-2,3.0818924E-3,4.0555485E-2,3.4080602E-2,6.819014E-2,4.8552256E-2,9.340629E-2,9.1180705E-2,1.3110599E-1],"split_indices":[8,8,8,5,6,6,6,8,4,8,5,5,5,8,5,0,0,0,0,0,0,0,0,0,0,0,0,0,0,0,0],"split_type":[0,0,0,0,0,0,0,0,0,0,0,0,0,0,0,0,0,0,0,0,0,0,0,0,0,0,0,0,0,0,0],"sum_hessian":[3.285E3,1.587E3,1.698E3,6.14E2,9.73E2,9.77E2,7.21E2,5.06E2,1.08E2,4.87E2,4.86E2,6.61E2,3.16E2,5.67E2,1.54E2,2.47E2,2.59E2,8.4E1,2.4E1,2.13E2,2.74E2,3.81E2,1.05E2,6.14E2,4.7E1,2.48E2,6.8E1,4.6E2,1.07E2,1.07E2,4.7E1],"tree_param":{"num_deleted":"0","num_feature":"16","num_nodes":"31","size_leaf_vector":"1"}},{"base_weights":[3.3916272E-2,-5.458979E0,5.928022E0,-9.386494E0,-2.3241742E0,3.1943035E0,1.046257E1,-1.0569693E1,-2.9593084E0,-4.359456E0,9.782706E-1,6.6219324E-1,5.4152765E0,8.74618E0,1.4450762E1,-8.858905E-2,-5.744665E-2,-2.883461E-2,8.496185E-3,-4.675257E-2,-2.2919925E-2,-1.246916E-3,3.446502E-2,-3.1355573E-3,1.7452272E-2,3.0854616E-2,6.1065886E-2,5.3254437E-2,9.156847E-2,8.747773E-2,1.3256824E-1],"categories":[],"categories_nodes":[],"categories_segments":[],"categories_sizes":[],"default_left":[0,0,0,0,0,0,0,0,0,0,0,0,0,0,0,0,0,0,0,0,0,0,0,0,0,0,0,0,0,0,0],"id":7,"left_children":[1,3,5,7,9,11,13,15,17,19,21,23,25,27,29,-1,-1,-1,-1,-1,-1,-1,-1,-1,-1,-1,-1,-1,-1,-1,-1],"loss_changes":[1.0850371E5,2.1336602E4,2.0010883E4,5.8248594E3,6.495447E3,5.67276E3,4.06075E3,3.1200156E3,5.891084E2,1.4843389E3,1.6850691E3,9.626007E2,1.7590508E3,2.0265137E3,1.4135859E3,0E0,0E0,0E0,0E0,0E0,0E0,0E0,0E0,0E0,0E0,0E0,0E0,0E0,0E0,0E0,0E0],"parents":[2147483647,0,0,1,1,2,2,3,3,4,4,5,5,6,6,7,7,8,8,9,9,10,10,11,11,12,12,13,13,14,14],"right_children":[2,4,6,8,10,12,14,16,18,20,22,24,26,28,30,-1,-1,-1,-1,-1,-1,-1,-1,-1,-1,-1,-1,-1,-1,-1,-1],"split_conditions":[8.686657E-2,-1.3882524E-1,3.2204723E-1,-1.902376E0,-3.9469857E-2,-1.1242526E-1,3.475251E-2,-2.8064665E-1,5.701238E0,-6.1061017E-2,4.6886206E0,2.1082185E-1,7.54016E0,2.502282E1,2.1592512E1,-8.858905E-2,-5.744665E-2,-2.883461E-2,8.496185E-3,-4.675257E-2,-2.2919925E-2,-1.246916E-3,3.446502E-2,-3.1355573E-3,1.7452272E-2,3.0854616E-2,6.1065886E-2,5.3254437E-2,9.156847E-2,8.747773E-2,1.3256824E-1],"split_indices":[8,8,8,5,6,6,6,8,4,8,5,8,4,5,5,0,0,0,0,0,0,0,0,0,0,0,0,0,0,0,0],"split_type":[0,0,0,0,0,0,0,0,0,0,0,0,0,0,0,0,0,0,0,0,0,0,0,0,0,0,0,0,0,0,0],"sum_hessian":[3.35E3,1.734E3,1.616E3,7.69E2,9.65E2,1.009E3,6.07E2,6.49E2,1.2E2,5.97E2,3.68E2,4.72E2,5.37E2,4.26E2,1.81E2,3.43E2,3.06E2,9.4E1,2.6E1,1.89E2,4.08E2,2.85E2,8.3E1,2.94E2,1.78E2,4.13E2,1.24E2,3.39E2,8.7E1,1.28E2,5.3E1],"tree_param":{"num_deleted":"0","num_feature":"16","num_nodes":"31","size_leaf_vector":"1"}},{"base_weights":[-3.9048214E-2,-5.751072E0,5.3261476E0,-9.891594E0,-2.9965694E0,2.706779E0,1.0044675E1,-1.130067E1,-3.1206064E0,-5.6810565E0,-4.3788323E-1,2.0751356E-1,4.6637263E0,8.51845E0,1.5043482E1,-8.9926116E-2,-6.0313597E-2,-3.1178731E-2,8.209754E-3,-5.8235325E-2,-3.0294092E-2,-9.494971E-3,1.3656108E-2,-7.898707E-3,1.912134E-2,2.5503024E-2,5.6025635E-2,5.4685466E-2,1.11644655E-1,9.0487555E-2,1.3466185E-1],"categories":[],"categories_nodes":[],"categories_segments":[],"categories_sizes":[],"default_left":[0,0,0,0,0,0,0,0,0,0,0,0,0,0,0,0,0,0,0,0,0,0,0,0,0,0,0,0,0,0,0],"id":8,"left_children":[1,3,5,7,9,11,13,15,17,19,21,23,25,27,29,-1,-1,-1,-1,-1,-1,-1,-1,-1,-1,-1,-1,-1,-1,-1,-1],"loss_changes":[1.0089907E5,1.8160664E4,2.0957586E4,6.0429883E3,6.5802734E3,5.341198E3,4.5205273E3,2.0983906E3,6.389949E2,1.6386553E3,1.0803965E3,1.6238055E3,2.0621934E3,2.3458008E3,1.0607031E3,0E0,0E0,0E0,0E0,0E0,0E0,0E0,0E0,0E0,0E0,0E0,0E0,0E0,0E0,0E0,0E0],"parents":[2147483647,0,0,1,1,2,2,3,3,4,4,5,5,6,6,7,7,8,8,9,9,10,10,11,11,12,12,13,13,14,14],"right_children":[2,4,6,8,10,12,14,16,18,20,22,24,26,28,30,-1,-1,-1,-1,-1,-1,-1,-1,-1,-1,-1,-1,-1,-1,-1,-1],"split_conditions":[6.614536E-2,-1.8040192E-1,3.2204723E-1,-3.5634537E0,-9.82618E-2,-1.2957297E-1,6.1371468E-2,-7.06254E-2,6.0528655E0,-8.666114E-2,1.1394941E-1,2.1759294E-1,1.3000162E1,6.68587E-1,2.0408289E1,-8.9926116E-2,-6.0313597E-2,-3.1178731E-2,8.209754E-3,-5.8235325E-2,-3.0294092E-2,-9.494971E-3,1.3656108E-2,-7.898707E-3,1.912134E-2,2.5503024E-2,5.6025635E-2,5.4685466E-2,1.11644655E-1,9.0487555E-2,1.3466185E-1],"split_indices":[7,7,7,5,6,6,6,6,4,7,6,7,5,7,5,0,0,0,0,0,0,0,0,0,0,0,0,0,0,0,0],"split_type":[0,0,0,0,0,0,0,0,0,0,0,0,0,0,0,0,0,0,0,0,0,0,0,0,0,0,0,0,0,0,0],"sum_hessian":[3.291E3,1.594E3,1.697E3,6.36E2,9.58E2,1.092E3,6.05E2,5.26E2,1.1E2,4.67E2,4.91E2,4.8E2,6.12E2,4.65E2,1.4E2,3.32E2,1.94E2,8.4E1,2.6E1,1.57E2,3.1E2,3.55E2,1.36E2,3.14E2,1.66E2,4.7E2,1.42E2,4.26E2,3.9E1,9.5E1,4.5E1],"tree_param":{"num_deleted":"0","num_feature":"16","num_nodes":"31","size_leaf_vector":"1"}},{"base_weights":[3.3074852E-2,-5.321902E0,5.6524696E0,-9.898142E0,-2.7212431E0,2.6631005E0,9.895624E0,-1.2184751E1,-6.483399E0,-5.170685E0,-3.6584347E-1,1.6864198E-1,4.988738E0,8.547707E0,1.4797061E1,-9.7408414E-2,-6.971912E-2,-5.494143E-2,-8.711023E-3,-5.4417614E-2,-2.8037105E-2,-6.45684E-3,3.484048E-2,-4.7072936E-3,1.6476762E-2,2.6467338E-2,5.7079338E-2,4.7899056E-2,8.409127E-2,9.618802E-2,1.797593E-1],"categories":[],"categories_nodes":[],"categories_segments":[],"categories_sizes":[],"default_left":[0,0,0,0,0,0,0,0,0,0,0,0,0,0,0,0,0,0,0,0,0,0,0,0,0,0,0,0,0,0,0],"id":9,"left_children":[1,3,5,7,9,11,13,15,17,19,21,23,25,27,29,-1,-1,-1,-1,-1,-1,-1,-1,-1,-1,-1,-1,-1,-1,-1,-1],"loss_changes":[9.877281E4,1.9977402E4,2.0291957E4,4.688785E3,6.184752E3,5.454012E3,4.272414E3,1.2925898E3,1.7462021E3,1.5674297E3,1.6298672E3,8.3764856E2,1.8332871E3,3.0101172E3,1.3641875E3,0E0,0E0,0E0,0E0,0E0,0E0,0E0,0E0,0E0,0E0,0E0,0E0,0E0,0E0,0E0,0E0],"parents":[2147483647,0,0,1,1,2,2,3,3,4,4,5,5,6,6,7,7,8,8,9,9,10,10,11,11,12,12,13,13,14,14],"right_children":[2,4,6,8,10,12,14,16,18,20,22,24,26,28,30,-1,-1,-1,-1,-1,-1,-1,-1,-1,-1,-1,-1,-1,-1,-1,-1],"split_conditions":[8.686657E-2,-1.8414532E-1,3.0859616E-1,-1.3649511E1,-1.0187228E-1,-1.1242526E-1,2.4407467E1,-9.82618E-2,5.9240617E-2,-8.666114E-2,1.2160127E1,2.3445919E-1,1.0168832E-1,5.516933E-3,8.828434E-1,-9.7408414E-2,-6.971912E-2,-5.494143E-2,-8.711023E-3,-5.4417614E-2,-2.8037105E-2,-6.45684E-3,3.484048E-2,-4.7072936E-3,1.6476762E-2,2.6467338E-2,5.7079338E-2,4.7899056E-2,8.409127E-2,9.618802E-2,1.797593E-1],"split_indices":[7,7,7,5,6,6,5,6,6,7,5,7,6,6,7,0,0,0,0,0,0,0,0,0,0,0,0,0,0,0,0],"split_type":[0,0,0,0,0,0,0,0,0,0,0,0,0,0,0,0,0,0,0,0,0,0,0,0,0,0,0,0,0,0,0],"sum_hessian":[3.281E3,1.68E3,1.601E3,6.08E2,1.072E3,9.4E2,6.61E2,3.63E2,2.45E2,5.25E2,5.47E2,4.54E2,4.86E2,5.2E2,1.41E2,2.02E2,1.61E2,1.94E2,5.1E1,1.61E2,3.64E2,4.96E2,5.1E1,3.28E2,1.26E2,3.53E2,1.33E2,3.5E2,1.7E2,1.3E2,1.1E1],"tree_param":{"num_deleted":"0","num_feature":"16","num_nodes":"31","size_leaf_vector":"1"}},{"base_weights":[2.8839689E-2,-5.582921E0,5.6924806E0,-1.0171054E1,-3.0877533E0,3.0596805E0,9.998996E0,-1.1331594E1,-2.9942133E0,-4.8290358E0,1.13996156E-1,4.99182E-1,5.077883E0,8.869659E0,1.6335934E1,-9.082462E-2,-6.315037E-2,-3.8885925E-2,4.0027844E-3,-5.0850164E-2,-2.454347E-2,-5.5297306E-3,2.9275978E-2,-4.949599E-3,1.8186187E-2,3.0649086E-2,6.4727336E-2,5.2830048E-2,9.0116724E-2,9.9247046E-2,1.5302123E-1],"categories":[],"categories_nodes":[],"categories_segments":[],"categories_sizes":[],"default_left":[0,0,0,0,0,0,0,0,0,0,0,0,0,0,0,0,0,0,0,0,0,0,0,0,0,0,0,0,0,0,0],"id":10,"left_children":[1,3,5,7,9,11,13,15,17,19,21,23,25,27,29,-1,-1,-1,-1,-1,-1,-1,-1,-1,-1,-1,-1,-1,-1,-1,-1],"loss_changes":[1.0419698E5,1.8823266E4,1.8472773E4,4.7976523E3,5.9552705E3,5.233841E3,4.314801E3,1.8011875E3,7.507201E2,2.2052578E3,1.3892821E3,1.1356655E3,1.6176025E3,2.711664E3,8.722832E2,0E0,0E0,0E0,0E0,0E0,0E0,0E0,0E0,0E0,0E0,0E0,0E0,0E0,0E0,0E0,0E0],"parents":[2147483647,0,0,1,1,2,2,3,3,4,4,5,5,6,6,7,7,8,8,9,9,10,10,11,11,12,12,13,13,14,14],"right_children":[2,4,6,8,10,12,14,16,18,20,22,24,26,28,30,-1,-1,-1,-1,-1,-1,-1,-1,-1,-1,-1,-1,-1,-1,-1,-1],"split_conditions":[7.878451E-2,-1.9694656E-1,3.17148E-1,-3.5634537E0,-1.7784968E-2,-1.253916E-1,7.6639132E0,-8.6738974E-2,3.582252E0,-8.336613E-2,4.6886206E0,2.1082185E-1,1.8179366E-1,5.4835856E-1,2.1878813E1,-9.082462E-2,-6.315037E-2,-3.8885925E-2,4.0027844E-3,-5.0850164E-2,-2.454347E-2,-5.5297306E-3,2.9275978E-2,-4.949599E-3,1.8186187E-2,3.0649086E-2,6.4727336E-2,5.2830048E-2,9.0116724E-2,9.9247046E-2,1.5302123E-1],"split_indices":[7,7,7,5,6,6,4,6,4,7,5,7,6,7,5,0,0,0,0,0,0,0,0,0,0,0,0,0,0,0,0],"split_type":[0,0,0,0,0,0,0,0,0,0,0,0,0,0,0,0,0,0,0,0,0,0,0,0,0,0,0,0,0,0,0],"sum_hessian":[3.277E3,1.646E3,1.631E3,5.79E2,1.067E3,1.013E3,6.18E2,4.98E2,8.1E1,6.91E2,3.76E2,4.47E2,5.66E2,5.26E2,9.2E1,2.89E2,2.09E2,4.7E1,3.4E1,2.42E2,4.49E2,3.08E2,6.8E1,2.84E2,1.63E2,4.86E2,8E1,3.97E2,1.29E2,6.8E1,2.4E1],"tree_param":{"num_deleted":"0","num_feature":"16","num_nodes":"31","size_leaf_vector":"1"}},{"base_weights":[1.5407388E-1,-4.826225E0,4.7091284E0,-8.157087E0,-9.198904E-2,2.5604508E0,9.069154E0,-1.1825307E1,-6.636617E0,-8.8576543E-1,7.225381E0,-1.4841796E-1,4.2069287E0,7.1410656E0,1.3484474E1,-9.209296E-2,-6.0896937E-2,-5.9179846E-2,-3.5163067E-2,-1.6335404E-2,1.2380749E-2,2.243992E-2,7.354993E-2,-1.294E-2,1.7900707E-2,2.3345191E-2,7.364523E-2,4.1454405E-2,8.151524E-2,7.968555E-2,1.1966083E-1],"categories":[],"categories_nodes":[],"categories_segments":[],"categories_sizes":[],"default_left":[0,0,0,0,0,0,0,0,0,0,0,0,0,0,0,0,0,0,0,0,0,0,0,0,0,0,0,0,0,0,0],"id":11,"left_children":[1,3,5,7,9,11,13,15,17,19,21,23,25,27,29,-1,-1,-1,-1,-1,-1,-1,-1,-1,-1,-1,-1,-1,-1,-1,-1],"loss_changes":[7.4734875E4,2.4811094E4,1.609809E4,5.088285E3,3.7807454E3,5.148024E3,4.7558867E3,1.0317344E3,1.8837402E3,2.2618042E3,8.100698E2,2.0117288E3,3.9197334E3,2.1214922E3,1.153127E3,0E0,0E0,0E0,0E0,0E0,0E0,0E0,0E0,0E0,0E0,0E0,0E0,0E0,0E0,0E0,0E0],"parents":[2147483647,0,0,1,1,2,2,3,3,4,4,5,5,6,6,7,7,8,8,9,9,10,10,11,11,12,12,13,13,14,14],"right_children":[2,4,6,8,10,12,14,16,18,20,22,24,26,28,30,-1,-1,-1,-1,-1,-1,-1,-1,-1,-1,-1,-1,-1,-1,-1,-1],"split_conditions":[4.130435E0,-2.437131E0,1.1684576E1,3.1176472E0,2.1592512E1,-4.019641E0,5.3513513E0,-1.2855584E1,-1.341618E1,-8.1804246E-2,-1.8741933E-1,4.793103E0,5.523256E0,5.379421E0,2.5612612E1,-9.209296E-2,-6.0896937E-2,-5.9179846E-2,-3.5163067E-2,-1.6335404E-2,1.2380749E-2,2.243992E-2,7.354993E-2,-1.294E-2,1.7900707E-2,2.3345191E-2,7.364523E-2,4.1454405E-2,8.151524E-2,7.968555E-2,1.1966083E-1],"split_indices":[3,5,5,3,5,5,3,5,5,6,6,3,3,4,5,0,0,0,0,0,0,0,0,0,0,0,0,0,0,0,0],"split_type":[0,0,0,0,0,0,0,0,0,0,0,0,0,0,0,0,0,0,0,0,0,0,0,0,0,0,0,0,0,0,0],"sum_hessian":[3.293E3,1.573E3,1.72E3,9.23E2,6.5E2,1.153E3,5.67E2,2.69E2,6.54E2,5.87E2,6.3E1,4.36E2,7.17E2,3.96E2,1.71E2,1.87E2,8.2E1,3.06E2,3.48E2,3.8E2,2.07E2,2.9E1,3.4E1,2.68E2,1.68E2,6.31E2,8.6E1,3.13E2,8.3E1,1.1E2,6.1E1],"tree_param":{"num_deleted":"0","num_feature":"16","num_nodes":"31","size_leaf_vector":"1"}},{"base_weights":[-4.519589E-2,-5.480395E0,3.9509664E0,-8.857736E0,-3.1605506E0,1.9158134E0,7.745263E0,-1.1057881E1,-6.2653155E0,-5.566036E0,-8.504688E-1,1.3260031E-1,6.0294337E0,4.633104E0,1.1041785E1,-7.979631E-2,-1.7202416E-2,-5.649999E-2,-2.7565653E-2,-6.069451E-2,-3.1077538E-2,-1.002357E-2,2.0600472E-2,-1.6689999E-2,6.2969136E-3,3.1653788E-2,6.570083E-2,1.2801423E-2,4.3178827E-2,6.739481E-2,1.347229E-1],"categories":[],"categories_nodes":[],"categories_segments":[],"categories_sizes":[],"default_left":[0,0,0,0,0,0,0,0,0,0,0,0,0,0,0,0,0,0,0,0,0,0,0,0,0,0,0,0,0,0,0],"id":12,"left_children":[1,3,5,7,9,11,13,15,17,19,21,23,25,27,29,-1,-1,-1,-1,-1,-1,-1,-1,-1,-1,-1,-1,-1,-1,-1,-1],"loss_changes":[7.1902086E4,1.0964605E4,1.4716078E4,3.1984648E3,4.620701E3,9.112115E3,6.7863164E3,8.7766016E2,1.0804473E3,1.3925234E3,9.411395E2,1.6756986E3,1.8645684E3,1.4679824E3,3.600707E3,0E0,0E0,0E0,0E0,0E0,0E0,0E0,0E0,0E0,0E0,0E0,0E0,0E0,0E0,0E0,0E0],"parents":[2147483647,0,0,1,1,2,2,3,3,4,4,5,5,6,6,7,7,8,8,9,9,10,10,11,11,12,12,13,13,14,14],"right_children":[2,4,6,8,10,12,14,16,18,20,22,24,26,28,30,-1,-1,-1,-1,-1,-1,-1,-1,-1,-1,-1,-1,-1,-1,-1,-1],"split_conditions":[-2.719877E0,-1.5017672E1,1.3221069E1,-1.0350728E-1,-1.0554488E-1,7.530649E-3,-7.6079555E-2,4.83E2,-5.1526487E-1,-6.504633E-1,2.0027494E-1,-2.9034537E-1,1.6050832E-1,-2.500504E-1,3.0208952E1,-7.979631E-2,-1.7202416E-2,-5.649999E-2,-2.7565653E-2,-6.069451E-2,-3.1077538E-2,-1.002357E-2,2.0600472E-2,-1.6689999E-2,6.2969136E-3,3.1653788E-2,6.570083E-2,1.2801423E-2,4.3178827E-2,6.739481E-2,1.347229E-1],"split_indices":[5,5,5,6,6,6,6,0,2,2,6,6,6,6,5,0,0,0,0,0,0,0,0,0,0,0,0,0,0,0,0],"split_type":[0,0,0,0,0,0,0,0,0,0,0,0,0,0,0,0,0,0,0,0,0,0,0,0,0,0,0,0,0,0,0],"sum_hessian":[3.309E3,1.402E3,1.907E3,5.7E2,8.32E2,1.242E3,6.65E2,3.07E2,2.63E2,4.07E2,4.25E2,8.67E2,3.75E2,3.43E2,3.22E2,2.95E2,1.2E1,1.47E2,1.16E2,1.07E2,3E2,3.69E2,5.6E1,2.02E2,6.65E2,2.6E2,1.15E2,1.22E2,2.21E2,2.76E2,4.6E1],"tree_param":{"num_deleted":"0","num_feature":"16","num_nodes":"31","size_leaf_vector":"1"}},{"base_weights":[-5.4428782E-2,-5.09617E0,5.679094E0,-8.990676E0,-1.9973016E0,3.5420253E0,1.0909551E1,-1.0266438E1,-3.9343107E0,-2.7134278E0,2.8141494E0,2.2182899E0,5.5948586E0,9.730557E0,1.7343378E1,-8.926805E-2,-5.9326574E-2,-3.670123E-2,1.6588679E-2,-2.4749879E-2,-9.0868183E-4,7.4073877E-3,9.0912536E-2,5.4362114E-3,2.7091207E-2,3.3922154E-2,8.754995E-2,5.8315817E-2,9.430645E-2,1.1199368E-1,1.854806E-1],"categories":[],"categories_nodes":[],"categories_segments":[],"categories_sizes":[],"default_left":[0,0,0,0,0,0,0,0,0,0,0,0,0,0,0,0,0,0,0,0,0,0,0,0,0,0,0,0,0,0,0],"id":13,"left_children":[1,3,5,7,9,11,13,15,17,19,21,23,25,27,29,-1,-1,-1,-1,-1,-1,-1,-1,-1,-1,-1,-1,-1,-1,-1,-1],"loss_changes":[9.586629E4,2.127941E4,1.7310633E4,5.007449E3,3.3946592E3,2.9839912E3,3.2807578E3,2.6920156E3,1.3193047E3,1.8178462E3,2.2646052E3,1.5952485E3,2.183913E3,1.9105312E3,5.3047266E2,0E0,0E0,0E0,0E0,0E0,0E0,0E0,0E0,0E0,0E0,0E0,0E0,0E0,0E0,0E0,0E0],"parents":[2147483647,0,0,1,1,2,2,3,3,4,4,5,5,6,6,7,7,8,8,9,9,10,10,11,11,12,12,13,13,14,14],"right_children":[2,4,6,8,10,12,14,16,18,20,22,24,26,28,30,-1,-1,-1,-1,-1,-1,-1,-1,-1,-1,-1,-1,-1,-1,-1,-1],"split_conditions":[9.735825E-2,-1.354698E-1,3.7533087E-1,-4.5304575E0,7.54016E0,1.6024219E0,7.6639132E0,-3.2026708E-1,6.685942E0,5.641001E0,8.465078E0,2.1759294E-1,2.2322046E1,2.4407467E1,7.919167E-1,-8.926805E-2,-5.9326574E-2,-3.670123E-2,1.6588679E-2,-2.4749879E-2,-9.0868183E-4,7.4073877E-3,9.0912536E-2,5.4362114E-3,2.7091207E-2,3.3922154E-2,8.754995E-2,5.8315817E-2,9.430645E-2,1.1199368E-1,1.854806E-1],"split_indices":[7,7,7,5,4,4,4,7,4,5,5,7,5,5,7,0,0,0,0,0,0,0,0,0,0,0,0,0,0,0,0],"split_type":[0,0,0,0,0,0,0,0,0,0,0,0,0,0,0,0,0,0,0,0,0,0,0,0,0,0,0,0,0,0,0],"sum_hessian":[3.315E3,1.764E3,1.551E3,7.81E2,9.83E2,1.102E3,4.49E2,6.23E2,1.58E2,8.56E2,1.27E2,6.71E2,4.31E2,3.81E2,6.8E1,2.59E2,3.64E2,1.31E2,2.7E1,6.49E2,2.07E2,1.09E2,1.8E1,3.59E2,3.12E2,3.9E2,4.1E1,2.79E2,1.02E2,6.1E1,7E0],"tree_param":{"num_deleted":"0","num_feature":"16","num_nodes":"31","size_leaf_vector":"1"}},{"base_weights":[9.951638E-2,-5.094314E0,5.5460715E0,-9.736481E0,-2.864166E0,2.5501008E0,9.14458E0,-1.1023352E1,-3.0140252E0,-5.217212E0,-6.0004747E-1,-1.2346839E-1,4.336323E0,6.9092436E0,1.201981E1,-8.977154E-2,-6.0690798E-2,-3.1576265E-2,1.6549658E-2,-5.0664872E-2,-2.586982E-2,-1.0758577E-2,2.3373479E-2,-5.687106E-3,2.3720717E-2,2.669146E-2,7.127834E-2,4.139906E-2,9.141502E-2,7.345575E-2,1.13357805E-1],"categories":[],"categories_nodes":[],"categories_segments":[],"categories_sizes":[],"default_left":[0,0,0,0,0,0,0,0,0,0,0,0,0,0,0,0,0,0,0,0,0,0,0,0,0,0,0,0,0,0,0],"id":14,"left_children":[1,3,5,7,9,11,13,15,17,19,21,23,25,27,29,-1,-1,-1,-1,-1,-1,-1,-1,-1,-1,-1,-1,-1,-1,-1,-1],"loss_changes":[9.299536E4,1.7394879E4,1.7278277E4,4.6907656E3,6.05609E3,4.189186E3,4.616453E3,1.8522461E3,7.2248145E2,1.6906299E3,2.145724E3,8.5164886E2,1.5743105E3,2.4565781E3,1.8928242E3,0E0,0E0,0E0,0E0,0E0,0E0,0E0,0E0,0E0,0E0,0E0,0E0,0E0,0E0,0E0,0E0],"parents":[2147483647,0,0,1,1,2,2,3,3,4,4,5,5,6,6,7,7,8,8,9,9,10,10,11,11,12,12,13,13,14,14],"right_children":[2,4,6,8,10,12,14,16,18,20,22,24,26,28,30,-1,-1,-1,-1,-1,-1,-1,-1,-1,-1,-1,-1,-1,-1,-1,-1],"split_conditions":[8.686657E-2,-2.0797774E-1,2.8520274E-1,-3.5634537E0,-9.6913055E-2,-1.4263609E-1,-3.672412E-2,-9.82618E-2,6.0528655E0,-6.1061017E-2,5.641001E0,3.99E2,2.1878813E1,2.7745771E1,2.1094183E1,-8.977154E-2,-6.0690798E-2,-3.1576265E-2,1.6549658E-2,-5.0664872E-2,-2.586982E-2,-1.0758577E-2,2.3373479E-2,-5.687106E-3,2.3720717E-2,2.669146E-2,7.127834E-2,4.139906E-2,9.141502E-2,7.345575E-2,1.13357805E-1],"split_indices":[7,7,7,5,6,6,6,6,4,7,5,0,5,5,5,0,0,0,0,0,0,0,0,0,0,0,0,0,0,0,0],"split_type":[0,0,0,0,0,0,0,0,0,0,0,0,0,0,0,0,0,0,0,0,0,0,0,0,0,0,0,0,0,0,0],"sum_hessian":[3.286E3,1.682E3,1.604E3,5.45E2,1.137E3,8.76E2,7.28E2,4.57E2,8.8E1,5.57E2,5.8E2,3.51E2,5.25E2,4.11E2,3.17E2,2.57E2,2E2,6.9E1,1.9E1,2.38E2,3.19E2,4.69E2,1.11E2,2.94E2,5.7E1,4.83E2,4.2E1,3.55E2,5.6E1,2.34E2,8.3E1],"tree_param":{"num_deleted":"0","num_feature":"16","num_nodes":"31","size_leaf_vector":"1"}},{"base_weights":[-2.9780628E-2,-5.231795E0,5.3584504E0,-9.551729E0,-2.8343425E0,2.3715434E0,9.008628E0,-1.0673317E1,-1.5927165E0,-4.84553E0,2.6949608E-1,2.6863238E-1,4.2978864E0,6.8792977E0,1.1786417E1,-9.341899E-2,-6.285035E-2,-2.509097E-2,1.7645134E-2,-5.008924E-2,-2.6250161E-2,-5.550131E-3,3.139098E-2,-4.592927E-3,1.296518E-2,2.3656264E-2,5.2275583E-2,4.2542692E-2,8.51714E-2,7.501805E-2,1.2428926E-1],"categories":[],"categories_nodes":[],"categories_segments":[],"categories_sizes":[],"default_left":[0,0,0,0,0,0,0,0,0,0,0,0,0,0,0,0,0,0,0,0,0,0,0,0,0,0,0,0,0,0,0],"id":15,"left_children":[1,3,5,7,9,11,13,15,17,19,21,23,25,27,29,-1,-1,-1,-1,-1,-1,-1,-1,-1,-1,-1,-1,-1,-1,-1,-1],"loss_changes":[9.231241E4,1.7329977E4,1.761684E4,5.317582E3,6.7368105E3,3.6050674E3,4.2387344E3,2.2775195E3,6.187313E2,1.632831E3,1.9059943E3,6.2628375E2,1.3300586E3,1.6936875E3,1.8631484E3,0E0,0E0,0E0,0E0,0E0,0E0,0E0,0E0,0E0,0E0,0E0,0E0,0E0,0E0,0E0,0E0],"parents":[2147483647,0,0,1,1,2,2,3,3,4,4,5,5,6,6,7,7,8,8,9,9,10,10,11,11,12,12,13,13,14,14],"right_children":[2,4,6,8,10,12,14,16,18,20,22,24,26,28,30,-1,-1,-1,-1,-1,-1,-1,-1,-1,-1,-1,-1,-1,-1,-1,-1],"split_conditions":[8.35452E-2,-1.8816431E-1,2.8520274E-1,-1.902376E0,-3.9469857E-2,-1.1242526E-1,-4.1513275E-2,-1.9409168E-1,4.284236E0,-8.336613E-2,5.151846E0,4.4835167E0,7.1334085E0,2.7745771E1,2.1616796E-1,-9.341899E-2,-6.285035E-2,-2.509097E-2,1.7645134E-2,-5.008924E-2,-2.6250161E-2,-5.550131E-3,3.139098E-2,-4.592927E-3,1.296518E-2,2.3656264E-2,5.2275583E-2,4.2542692E-2,8.51714E-2,7.501805E-2,1.2428926E-1],"split_indices":[7,7,7,5,6,6,6,6,4,7,5,3,4,5,6,0,0,0,0,0,0,0,0,0,0,0,0,0,0,0,0],"split_type":[0,0,0,0,0,0,0,0,0,0,0,0,0,0,0,0,0,0,0,0,0,0,0,0,0,0,0,0,0,0,0],"sum_hessian":[3.292E3,1.675E3,1.617E3,5.97E2,1.078E3,8.9E2,7.27E2,5.23E2,7.4E1,6.54E2,4.24E2,4.26E2,4.64E2,4.13E2,3.14E2,2.01E2,3.22E2,5E1,2.4E1,2.09E2,4.45E2,3.39E2,8.5E1,2.69E2,1.57E2,3.61E2,1.03E2,3.6E2,5.3E1,2.68E2,4.6E1],"tree_param":{"num_deleted":"0","num_feature":"16","num_nodes":"31","size_leaf_vector":"1"}},{"base_weights":[3.0439395E-2,-5.069043E0,5.488547E0,-9.481171E0,-2.4550407E0,2.4674554E0,9.095549E0,-1.0784822E1,-2.1366866E0,-4.9816074E0,-4.504167E-2,3.0951008E-1,4.322145E0,8.081887E0,1.5563602E1,-9.520957E-2,-6.648206E-2,-3.394604E-2,1.4794807E-2,-5.4198038E-2,-2.581943E-2,-1.0959963E-2,1.6192082E-2,-3.8458342E-3,1.4402987E-2,2.6687136E-2,7.3638245E-2,5.0554488E-2,1.0237743E-1,1.0313197E-1,1.8870693E-1],"categories":[],"categories_nodes":[],"categories_segments":[],"categories_sizes":[],"default_left":[0,0,0,0,0,0,0,0,0,0,0,0,0,0,0,0,0,0,0,0,0,0,0,0,0,0,0,0,0,0,0],"id":16,"left_children":[1,3,5,7,9,11,13,15,17,19,21,23,25,27,29,-1,-1,-1,-1,-1,-1,-1,-1,-1,-1,-1,-1,-1,-1,-1,-1],"loss_changes":[9.102656E4,1.9477242E4,1.7192758E4,5.997133E3,6.468114E3,3.441543E3,4.6197188E3,1.8341992E3,1.1117792E3,1.8264102E3,1.9554247E3,6.0014264E2,1.4267031E3,3.4249883E3,6.190996E2,0E0,0E0,0E0,0E0,0E0,0E0,0E0,0E0,0E0,0E0,0E0,0E0,0E0,0E0,0E0,0E0],"parents":[2147483647,0,0,1,1,2,2,3,3,4,4,5,5,6,6,7,7,8,8,9,9,10,10,11,11,12,12,13,13,14,14],"right_children":[2,4,6,8,10,12,14,16,18,20,22,24,26,28,30,-1,-1,-1,-1,-1,-1,-1,-1,-1,-1,-1,-1,-1,-1,-1,-1],"split_conditions":[8.686657E-2,-1.8040192E-1,2.8520274E-1,-3.5634537E0,-9.82618E-2,-1.1242526E-1,8.279098E0,-4.0864387E-1,3.582252E0,-8.336613E-2,4.9651666E0,3.37E2,2.2322046E1,6.3920784E-1,7.295946E-1,-9.520957E-2,-6.648206E-2,-3.394604E-2,1.4794807E-2,-5.4198038E-2,-2.581943E-2,-1.0959963E-2,1.6192082E-2,-3.8458342E-3,1.4402987E-2,2.6687136E-2,7.3638245E-2,5.0554488E-2,1.0237743E-1,1.0313197E-1,1.8870693E-1],"split_indices":[8,8,8,5,6,6,4,8,4,8,4,0,5,8,8,0,0,0,0,0,0,0,0,0,0,0,0,0,0,0,0],"split_type":[0,0,0,0,0,0,0,0,0,0,0,0,0,0,0,0,0,0,0,0,0,0,0,0,0,0,0,0,0,0,0],"sum_hessian":[3.269E3,1.69E3,1.579E3,6.28E2,1.062E3,8.6E2,7.19E2,5.33E2,9.5E1,5.18E2,5.44E2,3.98E2,4.62E2,6.23E2,9.6E1,1.65E2,3.68E2,5.8E1,3.7E1,1.64E2,3.54E2,3.31E2,2.13E2,2.67E2,1.31E2,4.28E2,3.4E1,5.52E2,7.1E1,9.1E1,5E0],"tree_param":{"num_deleted":"0","num_feature":"16","num_nodes":"31","size_leaf_vector":"1"}},{"base_weights":[7.685117E-2,-5.1412234E0,5.419311E0,-9.373846E0,-2.937227E0,2.6736438E0,8.9848995E0,-1.0635515E1,-2.303289E0,-4.136675E0,4.103461E-2,1.9896438E0,6.8156867E0,7.141469E0,1.25748415E1,-1.0754105E-1,-6.974598E-2,-3.0155554E-2,1.9247752E-2,-3.8938485E-2,-1.5744198E-2,-5.3246273E-3,5.5495936E-2,9.717098E-3,3.814074E-2,1.5720831E-2,5.7386097E-2,4.31563E-2,9.448016E-2,8.3636045E-2,1.543571E-1],"categories":[],"categories_nodes":[],"categories_segments":[],"categories_sizes":[],"default_left":[0,0,0,0,0,0,0,0,0,0,0,0,0,0,0,0,0,0,0,0,0,0,0,0,0,0,0,0,0,0,0],"id":17,"left_children":[1,3,5,7,9,11,13,15,17,19,21,23,25,27,29,-1,-1,-1,-1,-1,-1,-1,-1,-1,-1,-1,-1,-1,-1,-1,-1],"loss_changes":[9.0138375E4,1.5233684E4,1.5618859E4,4.969457E3,3.8483857E3,2.5465405E3,4.5253438E3,1.3889727E3,8.769995E2,2.053713E3,1.9659025E3,1.6073264E3,7.8870166E2,2.7911719E3,1.1946602E3,0E0,0E0,0E0,0E0,0E0,0E0,0E0,0E0,0E0,0E0,0E0,0E0,0E0,0E0,0E0,0E0],"parents":[2147483647,0,0,1,1,2,2,3,3,4,4,5,5,6,6,7,7,8,8,9,9,10,10,11,11,12,12,13,13,14,14],"right_children":[2,4,6,8,10,12,14,16,18,20,22,24,26,28,30,-1,-1,-1,-1,-1,-1,-1,-1,-1,-1,-1,-1,-1,-1,-1,-1],"split_conditions":[8.35452E-2,-1.9694656E-1,2.8520274E-1,-3.5634537E0,3.7930043E0,7.412321E0,4.9036667E-1,2.4691358E0,5.4636874E0,-2.607486E-2,1.2418337E1,1.6478497E1,4.214286E0,8.279098E0,8.828434E-1,-1.0754105E-1,-6.974598E-2,-3.0155554E-2,1.9247752E-2,-3.8938485E-2,-1.5744198E-2,-5.3246273E-3,5.5495936E-2,9.717098E-3,3.814074E-2,1.5720831E-2,5.7386097E-2,4.31563E-2,9.448016E-2,8.3636045E-2,1.543571E-1],"split_indices":[7,7,7,5,4,4,7,3,4,7,5,5,3,4,7,0,0,0,0,0,0,0,0,0,0,0,0,0,0,0,0],"split_type":[0,0,0,0,0,0,0,0,0,0,0,0,0,0,0,0,0,0,0,0,0,0,0,0,0,0,0,0,0,0,0],"sum_hessian":[3.232E3,1.635E3,1.597E3,5.59E2,1.076E3,9.03E2,6.94E2,4.74E2,8.5E1,7.67E2,3.09E2,7.76E2,1.27E2,4.6E2,2.34E2,5.7E1,4.17E2,6.1E1,2.4E1,4.36E2,3.31E2,2.81E2,2.8E1,6.62E2,1.14E2,3E1,9.7E1,4E2,6E1,2.21E2,1.3E1],"tree_param":{"num_deleted":"0","num_feature":"16","num_nodes":"31","size_leaf_vector":"1"}},{"base_weights":[1.09502956E-1,-5.072177E0,5.4310827E0,-9.405766E0,-2.410324E0,2.7498329E0,9.654213E0,-1.1146228E1,-6.668329E0,-3.903234E0,1.0677013E0,3.296568E-1,4.6204834E0,8.664853E0,1.6754913E1,-1.05741784E-1,-7.137103E-2,-7.1902975E-2,-3.7697498E-2,-4.2264175E-2,-1.8012945E-2,-1.9594273E-3,2.6534013E-2,-6.9050393E-3,1.7425213E-2,2.4744183E-2,5.0318148E-2,5.3743668E-2,1.0282304E-1,8.121251E-2,1.3357393E-1],"categories":[],"categories_nodes":[],"categories_segments":[],"categories_sizes":[],"default_left":[0,0,0,0,0,0,0,0,0,0,0,0,0,0,0,0,0,0,0,0,0,0,0,0,0,0,0,0,0,0,0],"id":18,"left_children":[1,3,5,7,9,11,13,15,17,19,21,23,25,27,29,-1,-1,-1,-1,-1,-1,-1,-1,-1,-1,-1,-1,-1,-1,-1,-1],"loss_changes":[9.1255555E4,1.931971E4,1.8462871E4,2.9778867E3,5.402773E3,4.522403E3,4.338586E3,1.3434648E3,1.108291E3,2.0507354E3,1.1498704E3,1.2436626E3,1.5484414E3,3.2273398E3,7.5106445E2,0E0,0E0,0E0,0E0,0E0,0E0,0E0,0E0,0E0,0E0,0E0,0E0,0E0,0E0,0E0,0E0],"parents":[2147483647,0,0,1,1,2,2,3,3,4,4,5,5,6,6,7,7,8,8,9,9,10,10,11,11,12,12,13,13,14,14],"right_children":[2,4,6,8,10,12,14,16,18,20,22,24,26,28,30,-1,-1,-1,-1,-1,-1,-1,-1,-1,-1,-1,-1,-1,-1,-1,-1],"split_conditions":[8.35452E-2,-1.8040192E-1,3.17148E-1,-7.206724E-2,1.1458834E-2,-1.253916E-1,6.3920784E-1,-4.6347615E-1,-4.0864387E-1,-6.476435E-2,7.3145466E0,2.0816101E-1,8.867165E-2,8.279098E0,-1.0187228E-1,-1.05741784E-1,-7.137103E-2,-7.1902975E-2,-3.7697498E-2,-4.2264175E-2,-1.8012945E-2,-1.9594273E-3,2.6534013E-2,-6.9050393E-3,1.7425213E-2,2.4744183E-2,5.0318148E-2,5.3743668E-2,1.0282304E-1,8.121251E-2,1.3357393E-1],"split_indices":[7,7,7,6,6,6,7,7,7,7,4,7,6,4,6,0,0,0,0,0,0,0,0,0,0,0,0,0,0,0,0],"split_type":[0,0,0,0,0,0,0,0,0,0,0,0,0,0,0,0,0,0,0,0,0,0,0,0,0,0,0,0,0,0,0],"sum_hessian":[3.308E3,1.676E3,1.632E3,6.37E2,1.039E3,9.99E2,6.33E2,3.88E2,2.49E2,7.27E2,3.12E2,4.36E2,5.63E2,5.57E2,7.6E1,7.3E1,3.15E2,6.4E1,1.85E2,2.78E2,4.49E2,2.09E2,1.03E2,2.71E2,1.65E2,3.97E2,1.66E2,4.8E2,7.7E1,2.5E1,5.1E1],"tree_param":{"num_deleted":"0","num_feature":"16","num_nodes":"31","size_leaf_vector":"1"}},{"base_weights":[-2.9118935E-2,-5.3490157E0,4.9630585E0,-8.467069E0,-2.3528523E0,2.2515538E0,8.759441E0,-1.078841E1,-5.9162683E0,-4.594533E0,3.3575028E-1,3.2891104E-1,4.5271926E0,7.704388E0,1.4544198E1,-8.1148714E-2,-1.7275693E-2,-6.288363E-2,-3.1117015E-2,-3.8555816E-2,-8.726975E-3,-5.318203E-3,2.9808337E-2,-1.6401904E-3,2.669737E-2,2.526028E-2,5.5080898E-2,4.4102725E-2,7.825917E-2,8.867595E-2,1.3264258E-1],"categories":[],"categories_nodes":[],"categories_segments":[],"categories_sizes":[],"default_left":[0,0,0,0,0,0,0,0,0,0,0,0,0,0,0,0,0,0,0,0,0,0,0,0,0,0,0,0,0,0,0],"id":19,"left_children":[1,3,5,7,9,11,13,15,17,19,21,23,25,27,29,-1,-1,-1,-1,-1,-1,-1,-1,-1,-1,-1,-1,-1,-1,-1,-1],"loss_changes":[8.6987445E4,1.4794691E4,1.7374422E4,4.5465E3,4.8831914E3,4.313578E3,4.2061133E3,2.6880273E3,1.6426191E3,1.3426045E3,1.5883112E3,1.0538713E3,1.3610781E3,2.8541328E3,7.0799023E2,0E0,0E0,0E0,0E0,0E0,0E0,0E0,0E0,0E0,0E0,0E0,0E0,0E0,0E0,0E0,0E0],"parents":[2147483647,0,0,1,1,2,2,3,3,4,4,5,5,6,6,7,7,8,8,9,9,10,10,11,11,12,12,13,13,14,14],"right_children":[2,4,6,8,10,12,14,16,18,20,22,24,26,28,30,-1,-1,-1,-1,-1,-1,-1,-1,-1,-1,-1,-1,-1,-1,-1,-1],"split_conditions":[6.614536E-2,-1.354698E-1,2.8520274E-1,-9.82618E-2,-7.492475E-2,-8.4716454E-2,1.20279476E-1,2.3874915E-1,-3.2986447E-1,5.7488055E0,9.125051E0,1.6997726E1,1.3000162E1,4.9036667E-1,1.9748653E1,-8.1148714E-2,-1.7275693E-2,-6.288363E-2,-3.1117015E-2,-3.8555816E-2,-8.726975E-3,-5.318203E-3,2.9808337E-2,-1.6401904E-3,2.669737E-2,2.526028E-2,5.5080898E-2,4.4102725E-2,7.825917E-2,8.867595E-2,1.3264258E-1],"split_indices":[7,7,7,9,9,9,9,5,7,5,4,5,5,7,5,0,0,0,0,0,0,0,0,0,0,0,0,0,0,0,0],"split_type":[0,0,0,0,0,0,0,0,0,0,0,0,0,0,0,0,0,0,0,0,0,0,0,0,0,0,0,0,0,0,0],"sum_hessian":[3.274E3,1.585E3,1.689E3,7.76E2,8.09E2,9.86E2,7.03E2,4.05E2,3.71E2,4.41E2,3.68E2,5.35E2,4.51E2,5.96E2,1.07E2,3.69E2,3.6E1,1.19E2,2.52E2,3.46E2,9.5E1,2.88E2,8E1,4.61E2,7.4E1,3.55E2,9.6E1,4.26E2,1.7E2,7.7E1,3E1],"tree_param":{"num_deleted":"0","num_feature":"16","num_nodes":"31","size_leaf_vector":"1"}},{"base_weights":[-1.2438179E-1,-5.1730404E0,5.2015767E0,-9.284961E0,-2.9005156E0,2.4538631E0,8.639445E0,-1.0553754E1,-2.7521439E0,-5.0003176E0,-8.4945685E-1,8.0563444E-1,5.175734E0,7.2124643E0,1.3528662E1,-9.091076E-2,-6.249529E-2,-3.204233E-2,2.6952133E-2,-4.92682E-2,-2.388623E-2,-1.3555858E-2,1.789021E-2,2.8713578E-3,3.8772944E-2,2.7996823E-2,5.1286206E-2,3.8980097E-2,7.0618354E-2,8.011287E-2,1.2580514E-1],"categories":[],"categories_nodes":[],"categories_segments":[],"categories_sizes":[],"default_left":[0,0,0,0,0,0,0,0,0,0,0,0,0,0,0,0,0,0,0,0,0,0,0,0,0,0,0,0,0,0,0],"id":20,"left_children":[1,3,5,7,9,11,13,15,17,19,21,23,25,27,29,-1,-1,-1,-1,-1,-1,-1,-1,-1,-1,-1,-1,-1,-1,-1,-1],"loss_changes":[8.8448125E4,1.5755184E4,1.5100398E4,4.952289E3,4.682958E3,3.9900283E3,4.8804766E3,1.8977031E3,1.2019856E3,1.7183301E3,2.0453647E3,1.035599E3,8.2332227E2,2.5614824E3,1.3216621E3,0E0,0E0,0E0,0E0,0E0,0E0,0E0,0E0,0E0,0E0,0E0,0E0,0E0,0E0,0E0,0E0],"parents":[2147483647,0,0,1,1,2,2,3,3,4,4,5,5,6,6,7,7,8,8,9,9,10,10,11,11,12,12,13,13,14,14],"right_children":[2,4,6,8,10,12,14,16,18,20,22,24,26,28,30,-1,-1,-1,-1,-1,-1,-1,-1,-1,-1,-1,-1,-1,-1,-1,-1],"split_conditions":[7.878451E-2,-1.9694656E-1,2.8520274E-1,-3.3887322E0,-9.6913055E-2,-4.5576964E-2,7.864402E-2,-1.8741933E-1,6.0528655E0,-6.1061017E-2,7.3145466E0,2.1592512E1,4.9014087E0,4.5529726E-1,2.1616796E-1,-9.091076E-2,-6.249529E-2,-3.204233E-2,2.6952133E-2,-4.92682E-2,-2.388623E-2,-1.3555858E-2,1.789021E-2,2.8713578E-3,3.8772944E-2,2.7996823E-2,5.1286206E-2,3.8980097E-2,7.0618354E-2,8.011287E-2,1.2580514E-1],"split_indices":[7,7,7,5,9,9,9,9,4,7,4,5,3,7,9,0,0,0,0,0,0,0,0,0,0,0,0,0,0,0,0],"split_type":[0,0,0,0,0,0,0,0,0,0,0,0,0,0,0,0,0,0,0,0,0,0,0,0,0,0,0,0,0,0,0],"sum_hessian":[3.288E3,1.688E3,1.6E3,6E2,1.088E3,8.9E2,7.1E2,5.02E2,9.8E1,5.37E2,5.51E2,5.55E2,3.35E2,5.51E2,1.59E2,1.99E2,3.03E2,7.7E1,2.1E1,2.34E2,3.03E2,4.18E2,1.33E2,5.13E2,4.2E1,2.18E2,1.17E2,3.52E2,1.99E2,1.1E2,4.9E1],"tree_param":{"num_deleted":"0","num_feature":"16","num_nodes":"31","size_leaf_vector":"1"}},{"base_weights":[-8.179294E-2,-5.3739867E0,4.9145026E0,-9.482033E0,-3.2280514E0,2.4178686E0,8.792459E0,-1.1410085E1,-5.9447417E0,-5.552783E0,-9.421957E-1,-3.0711615E-1,4.3893943E0,7.9274673E0,1.5375649E1,-9.148239E-2,-6.375465E-2,-5.0610956E-2,-8.88638E-3,-5.5000167E-2,-2.8912175E-2,-1.2527527E-2,1.8306145E-2,-1.8776847E-2,1.9660827E-3,2.4028454E-2,5.4583088E-2,4.600611E-2,7.9615735E-2,7.733945E-2,1.19768046E-1],"categories":[],"categories_nodes":[],"categories_segments":[],"categories_sizes":[],"default_left":[0,0,0,0,0,0,0,0,0,0,0,0,0,0,0,0,0,0,0,0,0,0,0,0,0,0,0,0,0,0,0],"id":21,"left_children":[1,3,5,7,9,11,13,15,17,19,21,23,25,27,29,-1,-1,-1,-1,-1,-1,-1,-1,-1,-1,-1,-1,-1,-1,-1,-1],"loss_changes":[8.65001E4,1.3977773E4,1.627127E4,3.6592344E3,5.5446533E3,5.507996E3,3.6548438E3,1.2496758E3,1.1534321E3,1.6685234E3,1.5936627E3,6.0323425E2,1.9150645E3,2.6652617E3,4.2301953E2,0E0,0E0,0E0,0E0,0E0,0E0,0E0,0E0,0E0,0E0,0E0,0E0,0E0,0E0,0E0,0E0],"parents":[2147483647,0,0,1,1,2,2,3,3,4,4,5,5,6,6,7,7,8,8,9,9,10,10,11,11,12,12,13,13,14,14],"right_children":[2,4,6,8,10,12,14,16,18,20,22,24,26,28,30,-1,-1,-1,-1,-1,-1,-1,-1,-1,-1,-1,-1,-1,-1,-1,-1],"split_conditions":[6.614536E-2,-2.0797774E-1,3.0859616E-1,-1.3012084E1,-1.0187228E-1,-1.4263609E-1,6.3920784E-1,-9.82618E-2,4.204179E-2,-8.666114E-2,5.492701E0,1.0606413E-1,5.072165E0,2.3032367E-2,-1.07364565E-1,-9.148239E-2,-6.375465E-2,-5.0610956E-2,-8.88638E-3,-5.5000167E-2,-2.8912175E-2,-1.2527527E-2,1.8306145E-2,-1.8776847E-2,1.9660827E-3,2.4028454E-2,5.4583088E-2,4.600611E-2,7.9615735E-2,7.733945E-2,1.19768046E-1],"split_indices":[7,7,7,5,6,6,7,6,6,7,5,7,3,6,6,0,0,0,0,0,0,0,0,0,0,0,0,0,0,0,0],"split_type":[0,0,0,0,0,0,0,0,0,0,0,0,0,0,0,0,0,0,0,0,0,0,0,0,0,0,0,0,0,0,0],"sum_hessian":[3.27E3,1.588E3,1.682E3,5.44E2,1.044E3,1.024E3,6.58E2,3.51E2,1.93E2,5.17E2,5.27E2,4.3E2,5.94E2,5.83E2,7.5E1,2.02E2,1.49E2,1.51E2,4.2E1,1.96E2,3.21E2,4.26E2,1.01E2,8.5E1,3.45E2,4.65E2,1.29E2,4.2E2,1.63E2,2.3E1,5.2E1],"tree_param":{"num_deleted":"0","num_feature":"16","num_nodes":"31","size_leaf_vector":"1"}},{"base_weights":[6.49757E-2,-5.084857E0,4.9708347E0,-8.392576E0,-2.1717997E0,2.2307928E0,8.596178E0,-1.0332798E1,-5.714765E0,-4.524144E0,2.737378E-1,-3.5610697E-1,4.003542E0,5.3685923E0,1.0631891E1,-9.805405E-2,-6.4614706E-2,-6.4537145E-2,-2.9761607E-2,-5.0931733E-2,-2.7299048E-2,-6.3642776E-3,1.4921275E-2,-1.6846588E-2,1.6398088E-3,2.1452557E-2,5.3043056E-2,2.9787906E-2,5.4001007E-2,6.765594E-2,1.20057866E-1],"categories":[],"categories_nodes":[],"categories_segments":[],"categories_sizes":[],"default_left":[0,0,0,0,0,0,0,0,0,0,0,0,0,0,0,0,0,0,0,0,0,0,0,0,0,0,0,0,0,0,0],"id":22,"left_children":[1,3,5,7,9,11,13,15,17,19,21,23,25,27,29,-1,-1,-1,-1,-1,-1,-1,-1,-1,-1,-1,-1,-1,-1,-1,-1],"loss_changes":[8.216937E4,1.527084E4,1.6527656E4,3.8098125E3,4.8622715E3,4.358017E3,4.6615E3,1.6392383E3,1.5747549E3,7.1468555E2,9.1332623E2,4.69588E2,1.8701758E3,6.990762E2,2.636707E3,0E0,0E0,0E0,0E0,0E0,0E0,0E0,0E0,0E0,0E0,0E0,0E0,0E0,0E0,0E0,0E0],"parents":[2147483647,0,0,1,1,2,2,3,3,4,4,5,5,6,6,7,7,8,8,9,9,10,10,11,11,12,12,13,13,14,14],"right_children":[2,4,6,8,10,12,14,16,18,20,22,24,26,28,30,-1,-1,-1,-1,-1,-1,-1,-1,-1,-1,-1,-1,-1,-1,-1,-1],"split_conditions":[7.0034094E-2,-1.3882524E-1,2.8520274E-1,-7.206724E-2,-9.281894E-2,-1.4263609E-1,-1.1652997E-1,-4.0864387E-1,-3.400833E-1,-4.0775222E-1,4.9651666E0,1.0945077E-1,1.2959343E-1,4.642866E-1,6.3920784E-1,-9.805405E-2,-6.4614706E-2,-6.4537145E-2,-2.9761607E-2,-5.0931733E-2,-2.7299048E-2,-6.3642776E-3,1.4921275E-2,-1.6846588E-2,1.6398088E-3,2.1452557E-2,5.3043056E-2,2.9787906E-2,5.4001007E-2,6.765594E-2,1.20057866E-1],"split_indices":[7,7,7,6,6,6,6,7,7,6,4,7,6,7,7,0,0,0,0,0,0,0,0,0,0,0,0,0,0,0,0],"split_type":[0,0,0,0,0,0,0,0,0,0,0,0,0,0,0,0,0,0,0,0,0,0,0,0,0,0,0,0,0,0,0],"sum_hessian":[3.251E3,1.586E3,1.665E3,7.42E2,8.44E2,9.49E2,7.16E2,4.29E2,3.13E2,4.3E2,4.14E2,3.86E2,5.63E2,2.78E2,4.38E2,9.7E1,3.32E2,9.1E1,2.22E2,7.8E1,3.52E2,2.53E2,1.61E2,8.6E1,3E2,4.47E2,1.16E2,1.9E2,8.8E1,3.83E2,5.5E1],"tree_param":{"num_deleted":"0","num_feature":"16","num_nodes":"31","size_leaf_vector":"1"}},{"base_weights":[5.324365E-2,-5.1477885E0,4.952103E0,-8.280956E0,-2.179063E0,2.936169E0,1.0113109E1,-9.556235E0,-3.0165303E0,-4.4455733E0,3.54847E-1,2.603662E-1,4.6947803E0,8.387243E0,1.4263555E1,-8.181701E-2,-5.338202E-2,-2.9520165E-2,1.3391759E-2,-3.2933768E-2,3.6961783E-2,-3.6187966E-3,3.419672E-2,-4.907625E-3,1.8169777E-2,2.8108979E-2,8.2631044E-2,4.8513535E-2,8.6635716E-2,8.000253E-2,1.15635216E-1],"categories":[],"categories_nodes":[],"categories_segments":[],"categories_sizes":[],"default_left":[0,0,0,0,0,0,0,0,0,0,0,0,0,0,0,0,0,0,0,0,0,0,0,0,0,0,0,0,0,0,0],"id":23,"left_children":[1,3,5,7,9,11,13,15,17,19,21,23,25,27,29,-1,-1,-1,-1,-1,-1,-1,-1,-1,-1,-1,-1,-1,-1,-1,-1],"loss_changes":[8.5084555E4,1.5047902E4,1.7865066E4,5.2620586E3,4.7853887E3,5.8209033E3,3.3634531E3,2.5363516E3,9.223142E2,1.1255801E3,1.5588785E3,1.1062E3,3.5650605E3,1.9224961E3,7.549414E2,0E0,0E0,0E0,0E0,0E0,0E0,0E0,0E0,0E0,0E0,0E0,0E0,0E0,0E0,0E0,0E0],"parents":[2147483647,0,0,1,1,2,2,3,3,4,4,5,5,6,6,7,7,8,8,9,9,10,10,11,11,12,12,13,13,14,14],"right_children":[2,4,6,8,10,12,14,16,18,20,22,24,26,28,30,-1,-1,-1,-1,-1,-1,-1,-1,-1,-1,-1,-1,-1,-1,-1,-1],"split_conditions":[6.614536E-2,-1.354698E-1,3.7017778E-1,-4.162435E0,-9.281894E-2,-1.4263609E-1,3.475251E-2,-2.951771E-1,6.0528655E0,2.0408289E1,7.2506757E0,2.4391668E-1,2.2322046E1,2.4065163E1,5.012209E-1,-8.181701E-2,-5.338202E-2,-2.9520165E-2,1.3391759E-2,-3.2933768E-2,3.6961783E-2,-3.6187966E-3,3.419672E-2,-4.907625E-3,1.8169777E-2,2.8108979E-2,8.2631044E-2,4.8513535E-2,8.6635716E-2,8.000253E-2,1.15635216E-1],"split_indices":[7,7,7,5,9,9,9,7,4,5,5,7,5,5,7,0,0,0,0,0,0,0,0,0,0,0,0,0,0,0,0],"split_type":[0,0,0,0,0,0,0,0,0,0,0,0,0,0,0,0,0,0,0,0,0,0,0,0,0,0,0,0,0,0,0],"sum_hessian":[3.338E3,1.619E3,1.719E3,7.87E2,8.32E2,1.237E3,4.82E2,6.33E2,1.54E2,4.39E2,3.93E2,4.91E2,7.46E2,3.42E2,1.4E2,2.99E2,3.34E2,1.24E2,3E1,4.28E2,1.1E1,3.3E2,6.3E1,3.48E2,1.43E2,6.82E2,6.4E1,2.52E2,9E1,6.4E1,7.6E1],"tree_param":{"num_deleted":"0","num_feature":"16","num_nodes":"31","size_leaf_vector":"1"}},{"base_weights":[2.479898E-2,-4.9706683E0,5.2132125E0,-9.572821E0,-2.8004706E0,2.3781238E0,8.604518E0,-1.17018175E1,-6.8966327E0,-4.9031286E0,-5.2797186E-1,-8.867302E-2,4.355979E0,7.209692E0,1.2954646E1,-9.9842556E-2,-7.472619E-2,-6.7369364E-2,-3.5744626E-2,-5.0269745E-2,-2.5068752E-2,-2.8706595E-2,2.6418439E-3,-7.282515E-3,1.624468E-2,2.412217E-2,5.0743464E-2,4.222762E-2,7.6233186E-2,8.063051E-2,1.1662705E-1],"categories":[],"categories_nodes":[],"categories_segments":[],"categories_sizes":[],"default_left":[0,0,0,0,0,0,0,0,0,0,0,0,0,0,0,0,0,0,0,0,0,0,0,0,0,0,0,0,0,0,0],"id":24,"left_children":[1,3,5,7,9,11,13,15,17,19,21,23,25,27,29,-1,-1,-1,-1,-1,-1,-1,-1,-1,-1,-1,-1,-1,-1,-1,-1],"loss_changes":[8.49452E4,1.665148E4,1.5437781E4,2.9813164E3,5.4221787E3,4.2797397E3,4.364953E3,6.6233203E2,1.1241875E3,1.7527529E3,1.7714102E3,8.9687195E2,1.2586436E3,2.3538477E3,7.934668E2,0E0,0E0,0E0,0E0,0E0,0E0,0E0,0E0,0E0,0E0,0E0,0E0,0E0,0E0,0E0,0E0],"parents":[2147483647,0,0,1,1,2,2,3,3,4,4,5,5,6,6,7,7,8,8,9,9,10,10,11,11,12,12,13,13,14,14],"right_children":[2,4,6,8,10,12,14,16,18,20,22,24,26,28,30,-1,-1,-1,-1,-1,-1,-1,-1,-1,-1,-1,-1,-1,-1,-1,-1],"split_conditions":[8.686657E-2,-2.0797774E-1,2.8520274E-1,-9.82618E-2,-9.4389625E-2,-1.253916E-1,6.1371468E-2,-4.2587307E-1,-3.585418E-1,-8.666114E-2,-1.354698E-1,3.47E2,1.16240285E-1,5.3007364E-1,2.2311336E-1,-9.9842556E-2,-7.472619E-2,-6.7369364E-2,-3.5744626E-2,-5.0269745E-2,-2.5068752E-2,-2.8706595E-2,2.6418439E-3,-7.282515E-3,1.624468E-2,2.412217E-2,5.0743464E-2,4.222762E-2,7.6233186E-2,8.063051E-2,1.1662705E-1],"split_indices":[7,7,7,6,6,6,6,7,7,7,7,0,6,7,6,0,0,0,0,0,0,0,0,0,0,0,0,0,0,0,0],"split_type":[0,0,0,0,0,0,0,0,0,0,0,0,0,0,0,0,0,0,0,0,0,0,0,0,0,0,0,0,0,0,0],"sum_hessian":[3.276E3,1.669E3,1.607E3,5.34E2,1.135E3,8.76E2,7.31E2,2.96E2,2.38E2,5.89E2,5.46E2,3.9E2,4.86E2,5.55E2,1.76E2,8.2E1,2.14E2,9.3E1,1.45E2,2.15E2,3.74E2,1.1E2,4.36E2,2.8E2,1.1E2,3.71E2,1.15E2,4.22E2,1.33E2,1.29E2,4.7E1],"tree_param":{"num_deleted":"0","num_feature":"16","num_nodes":"31","size_leaf_vector":"1"}},{"base_weights":[-9.267935E-2,-4.8467684E0,3.7812176E0,-8.045399E0,-2.8729892E0,1.6498603E0,7.476733E0,-1.0167421E1,-5.8174586E0,-5.2401543E0,-6.0132635E-1,3.2986102E-1,6.090458E0,4.3704443E0,1.05382185E1,-8.783328E-2,-6.186352E-2,-6.32563E-2,-3.1038174E-2,-4.3970753E-2,-1.7620385E-2,-9.960338E-3,2.0882048E-2,-1.6938321E-2,6.7327563E-3,3.943726E-2,1.1566978E-1,2.148095E-2,5.695126E-2,5.7117403E-2,9.786847E-2],"categories":[],"categories_nodes":[],"categories_segments":[],"categories_sizes":[],"default_left":[0,0,0,0,0,0,0,0,0,0,0,0,0,0,0,0,0,0,0,0,0,0,0,0,0,0,0,0,0,0,0],"id":25,"left_children":[1,3,5,7,9,11,13,15,17,19,21,23,25,27,29,-1,-1,-1,-1,-1,-1,-1,-1,-1,-1,-1,-1,-1,-1,-1,-1],"loss_changes":[6.085685E4,9.345703E3,1.4327549E4,2.6255312E3,4.9350986E3,6.769615E3,6.291336E3,8.263047E2,1.2022568E3,1.2598457E3,1.3853799E3,1.5503433E3,1.185419E3,1.602977E3,2.6509258E3,0E0,0E0,0E0,0E0,0E0,0E0,0E0,0E0,0E0,0E0,0E0,0E0,0E0,0E0,0E0,0E0],"parents":[2147483647,0,0,1,1,2,2,3,3,4,4,5,5,6,6,7,7,8,8,9,9,10,10,11,11,12,12,13,13,14,14],"right_children":[2,4,6,8,10,12,14,16,18,20,22,24,26,28,30,-1,-1,-1,-1,-1,-1,-1,-1,-1,-1,-1,-1,-1,-1,-1,-1],"split_conditions":[-1.902376E0,-1.5017672E1,1.3000162E1,-1.0350728E-1,-1.0554488E-1,4.463138E-2,-8.6738974E-2,-2.4007607E1,-2.6360498E1,-2.2140622E-1,9.125051E0,-3.1883544E-1,3.5128143E-1,2.4407467E1,2.2322046E1,-8.783328E-2,-6.186352E-2,-6.32563E-2,-3.1038174E-2,-4.3970753E-2,-1.7620385E-2,-9.960338E-3,2.0882048E-2,-1.6938321E-2,6.7327563E-3,3.943726E-2,1.1566978E-1,2.148095E-2,5.695126E-2,5.7117403E-2,9.786847E-2],"split_indices":[5,5,5,9,9,9,9,5,5,2,4,9,9,5,5,0,0,0,0,0,0,0,0,0,0,0,0,0,0,0,0],"split_type":[0,0,0,0,0,0,0,0,0,0,0,0,0,0,0,0,0,0,0,0,0,0,0,0,0,0,0,0,0,0,0],"sum_hessian":[3.303E3,1.483E3,1.82E3,5.65E2,9.18E2,1.155E3,6.65E2,2.88E2,2.77E2,4.49E2,4.69E2,8.91E2,2.64E2,3.31E2,3.34E2,1.01E2,1.87E2,8.2E1,1.95E2,3.24E2,1.25E2,3.82E2,8.7E1,1.66E2,7.25E2,2.54E2,1E1,2.47E2,8.4E1,1.99E2,1.35E2],"tree_param":{"num_deleted":"0","num_feature":"16","num_nodes":"31","size_leaf_vector":"1"}},{"base_weights":[5.8546457E-2,-3.92097E0,4.7688518E0,-7.0868626E0,-2.091233E0,3.2155573E0,9.189015E0,-9.6895075E0,-5.9222946E0,-3.3070557E0,-8.7194157E-1,2.3045783E0,5.8602753E0,4.037967E0,1.0559973E1,-7.2044775E-2,-2.1656115E-2,-4.5865573E-2,-7.648486E-3,-2.8933149E-2,-1.023501E-2,-1.0819834E-2,1.574564E-2,6.913923E-3,2.2277E-2,3.601622E-2,7.009222E-2,3.9389096E-2,1.2756771E-2,6.462878E-2,9.0553895E-2],"categories":[],"categories_nodes":[],"categories_segments":[],"categories_sizes":[],"default_left":[0,0,0,0,0,0,0,0,0,0,0,0,0,0,0,0,0,0,0,0,0,0,0,0,0,0,0,0,0,0,0],"id":26,"left_children":[1,3,5,7,9,11,13,15,17,19,21,23,25,27,29,-1,-1,-1,-1,-1,-1,-1,-1,-1,-1,-1,-1,-1,-1,-1,-1],"loss_changes":[6.1096715E4,1.0219189E4,1.0221926E4,1.9125918E3,1.6572915E3,2.6505176E3,2.7010469E3,7.610293E2,1.3563262E3,8.477339E2,1.1811888E3,9.479575E2,7.963096E2,2.8033203E2,8.7041406E2,0E0,0E0,0E0,0E0,0E0,0E0,0E0,0E0,0E0,0E0,0E0,0E0,0E0,0E0,0E0,0E0],"parents":[2147483647,0,0,1,1,2,2,3,3,4,4,5,5,6,6,7,7,8,8,9,9,10,10,11,11,12,12,13,13,14,14],"right_children":[2,4,6,8,10,12,14,16,18,20,22,24,26,28,30,-1,-1,-1,-1,-1,-1,-1,-1,-1,-1,-1,-1,-1,-1,-1,-1],"split_conditions":[4.284091E0,3.4597702E0,5.2916665E0,2.8837209E0,-1.1652997E-1,5.298115E0,-1.4263609E-1,6E0,5E0,4E0,4E0,-1.5679927E-1,1.3064286E1,5.508572E-1,5.8969073E0,-7.2044775E-2,-2.1656115E-2,-4.5865573E-2,-7.648486E-3,-2.8933149E-2,-1.023501E-2,-1.0819834E-2,1.574564E-2,6.913923E-3,2.2277E-2,3.601622E-2,7.009222E-2,3.9389096E-2,1.2756771E-2,6.462878E-2,9.0553895E-2],"split_indices":[3,3,3,3,6,4,6,12,12,12,12,6,4,1,3,0,0,0,0,0,0,0,0,0,0,0,0,0,0,0,0],"split_type":[0,0,0,0,0,0,0,0,0,0,0,0,0,0,0,0,0,0,0,0,0,0,0,0,0,0,0,0,0,0,0],"sum_hessian":[3.258E3,1.766E3,1.492E3,6.46E2,1.12E3,1.105E3,3.87E2,1.98E2,4.48E2,5.6E2,5.6E2,8.23E2,2.82E2,8.2E1,3.05E2,1.81E2,1.7E1,3.96E2,5.2E1,3.86E2,1.74E2,4.61E2,9.9E1,3.3E2,4.93E2,2.42E2,4E1,4.7E1,3.5E1,1.98E2,1.07E2],"tree_param":{"num_deleted":"0","num_feature":"16","num_nodes":"31","size_leaf_vector":"1"}},{"base_weights":[1.5353537E-1,-4.815119E0,5.104526E0,-8.100837E0,-2.0663123E0,2.8385162E0,9.402045E0,-1.0285299E1,-5.224447E0,-3.9194832E0,8.4038126E-1,1.7944759E0,6.706289E0,7.659373E0,1.2936192E1,-8.617374E-2,-5.3972177E-2,-5.1690724E-2,-1.8105578E-2,-5.496298E-2,-2.3160737E-2,-1.12316935E-4,4.8360992E-2,9.612492E-3,4.4872787E-2,3.6346935E-2,6.310331E-2,2.7894614E-2,6.0040887E-2,7.650203E-2,1.19256675E-1],"categories":[],"categories_nodes":[],"categories_segments":[],"categories_sizes":[],"default_left":[0,0,0,0,0,0,0,0,0,0,0,0,0,0,0,0,0,0,0,0,0,0,0,0,0,0,0,0,0,0,0],"id":27,"left_children":[1,3,5,7,9,11,13,15,17,19,21,23,25,27,29,-1,-1,-1,-1,-1,-1,-1,-1,-1,-1,-1,-1,-1,-1,-1,-1],"loss_changes":[8.180383E4,1.4973379E4,1.619632E4,4.7033633E3,4.8770283E3,4.3958223E3,3.460582E3,2.159918E3,1.8489453E3,1.3039854E3,1.8364691E3,1.6636707E3,7.702217E2,1.2743027E3,1.41025E3,0E0,0E0,0E0,0E0,0E0,0E0,0E0,0E0,0E0,0E0,0E0,0E0,0E0,0E0,0E0,0E0],"parents":[2147483647,0,0,1,1,2,2,3,3,4,4,5,5,6,6,7,7,8,8,9,9,10,10,11,11,12,12,13,13,14,14],"right_children":[2,4,6,8,10,12,14,16,18,20,22,24,26,28,30,-1,-1,-1,-1,-1,-1,-1,-1,-1,-1,-1,-1,-1,-1,-1,-1],"split_conditions":[7.878451E-2,-1.354698E-1,3.3862337E-1,-1.2855584E1,-3.9469857E-2,6.1371468E-2,5.4383564E0,-9.82618E-2,-7.492475E-2,-4.1428944E-1,8.465078E0,2.1592512E1,7.0757775E0,-2.542388E-1,6.2287533E-1,-8.617374E-2,-5.3972177E-2,-5.1690724E-2,-1.8105578E-2,-5.496298E-2,-2.3160737E-2,-1.12316935E-4,4.8360992E-2,9.612492E-3,4.4872787E-2,3.6346935E-2,6.310331E-2,2.7894614E-2,6.0040887E-2,7.650203E-2,1.19256675E-1],"split_indices":[8,8,8,5,6,6,3,6,6,6,5,5,5,6,8,0,0,0,0,0,0,0,0,0,0,0,0,0,0,0,0],"split_type":[0,0,0,0,0,0,0,0,0,0,0,0,0,0,0,0,0,0,0,0,0,0,0,0,0,0,0,0,0,0,0],"sum_hessian":[3.324E3,1.659E3,1.665E3,7.55E2,9.04E2,1.091E3,5.74E2,4.28E2,3.27E2,5.52E2,3.52E2,8.6E2,2.31E2,3.86E2,1.88E2,2.38E2,1.9E2,1.79E2,1.48E2,7.3E1,4.79E2,3.09E2,4.3E1,7.89E2,7.1E1,1.41E2,9E1,7.8E1,3.08E2,1.28E2,6E1],"tree_param":{"num_deleted":"0","num_feature":"16","num_nodes":"31","size_leaf_vector":"1"}},{"base_weights":[4.6241496E-2,-4.111589E0,4.5335803E0,-7.493838E0,-2.365325E0,2.6849983E0,7.951432E0,-1.2853876E1,-6.5282755E0,-3.7691047E0,2.5678086E-1,4.0458822E-1,4.0886126E0,6.578303E0,1.124912E1,-7.962655E-2,-1.0559635E-1,-5.2749105E-2,-2.7593307E-2,-4.139276E-2,-1.5544759E-2,-8.359014E-3,1.4394562E-2,-7.095737E-3,2.3186114E-2,2.3906427E-2,5.529017E-2,3.481405E-2,6.064863E-2,7.36648E-2,1.453695E-1],"categories":[],"categories_nodes":[],"categories_segments":[],"categories_sizes":[],"default_left":[0,0,0,0,0,0,0,0,0,0,0,0,0,0,0,0,0,0,0,0,0,0,0,0,0,0,0,0,0,0,0],"id":28,"left_children":[1,3,5,7,9,11,13,15,17,19,21,23,25,27,29,-1,-1,-1,-1,-1,-1,-1,-1,-1,-1,-1,-1,-1,-1,-1,-1],"loss_changes":[6.1241617E4,1.0045346E4,9.9544E3,2.932416E3,4.142249E3,3.2796792E3,2.4470898E3,1.5730664E2,1.2573281E3,2.4194434E3,1.0274756E3,1.6187721E3,1.6041143E3,1.2778828E3,9.497031E2,0E0,0E0,0E0,0E0,0E0,0E0,0E0,0E0,0E0,0E0,0E0,0E0,0E0,0E0,0E0,0E0],"parents":[2147483647,0,0,1,1,2,2,3,3,4,4,5,5,6,6,7,7,8,8,9,9,10,10,11,11,12,12,13,13,14,14],"right_children":[2,4,6,8,10,12,14,16,18,20,22,24,26,28,30,-1,-1,-1,-1,-1,-1,-1,-1,-1,-1,-1,-1,-1,-1,-1,-1],"split_conditions":[4.2261906E0,3.3529413E0,5.0581393E0,2.4691358E0,-1.9568743E-1,-3.3691433E-1,5.7530866E0,9E0,-3.019284E-1,4.7878096E-1,2.3682289E-1,4.6612983E0,1.16240285E-1,2.3032367E-2,6.304732E-1,-7.962655E-2,-1.0559635E-1,-5.2749105E-2,-2.7593307E-2,-4.139276E-2,-1.5544759E-2,-8.359014E-3,1.4394562E-2,-7.095737E-3,2.3186114E-2,2.3906427E-2,5.529017E-2,3.481405E-2,6.064863E-2,7.36648E-2,1.453695E-1],"split_indices":[3,3,3,3,2,2,3,14,2,1,1,4,9,9,2,0,0,0,0,0,0,0,0,0,0,0,0,0,0,0,0],"split_type":[0,0,0,0,0,0,0,0,0,0,0,0,0,0,0,0,0,0,0,0,0,0,0,0,0,0,0,0,0,0,0],"sum_hessian":[3.281E3,1.703E3,1.578E3,5.79E2,1.124E3,1.025E3,5.53E2,8.7E1,4.92E2,7.32E2,3.92E2,3.91E2,6.34E2,3.92E2,1.61E2,5.5E1,3.2E1,3.53E2,1.39E2,3.06E2,4.26E2,2.17E2,1.75E2,2.63E2,1.28E2,5.4E2,9.4E1,2.23E2,1.69E2,1.51E2,1E1],"tree_param":{"num_deleted":"0","num_feature":"16","num_nodes":"31","size_leaf_vector":"1"}},{"base_weights":[-7.898188E-2,-4.938638E0,4.618006E0,-7.9498143E0,-2.0429232E0,2.1988137E0,8.473939E0,-9.863654E0,-5.486359E0,-3.7138977E0,6.4081115E-1,-3.9861688E-1,4.0818205E0,7.590678E0,1.4336288E1,-9.254551E-2,-6.2572345E-2,-6.075792E-2,-2.9359167E-2,-5.4261316E-2,-2.1846518E-2,-1.3681591E-3,2.4633622E-2,-9.539924E-3,1.2882059E-2,2.2975562E-2,5.123559E-2,4.4157494E-2,8.225651E-2,8.745039E-2,1.3032724E-1],"categories":[],"categories_nodes":[],"categories_segments":[],"categories_sizes":[],"default_left":[0,0,0,0,0,0,0,0,0,0,0,0,0,0,0,0,0,0,0,0,0,0,0,0,0,0,0,0,0,0,0],"id":29,"left_children":[1,3,5,7,9,11,13,15,17,19,21,23,25,27,29,-1,-1,-1,-1,-1,-1,-1,-1,-1,-1,-1,-1,-1,-1,-1,-1],"loss_changes":[7.521979E4,1.4106715E4,1.561307E4,3.696879E3,3.7104373E3,5.0440522E3,3.2571055E3,1.2907773E3,1.4072432E3,1.1981685E3,7.668105E2,9.377674E2,1.5253643E3,2.9418574E3,4.8400586E2,0E0,0E0,0E0,0E0,0E0,0E0,0E0,0E0,0E0,0E0,0E0,0E0,0E0,0E0,0E0,0E0],"parents":[2147483647,0,0,1,1,2,2,3,3,4,4,5,5,6,6,7,7,8,8,9,9,10,10,11,11,12,12,13,13,14,14],"right_children":[2,4,6,8,10,12,14,16,18,20,22,24,26,28,30,-1,-1,-1,-1,-1,-1,-1,-1,-1,-1,-1,-1,-1,-1,-1,-1],"split_conditions":[6.614536E-2,-1.354698E-1,3.051056E-1,-8.6738974E-2,-3.9469857E-2,-1.4263609E-1,8.279098E0,-4.1682482E-1,-3.2986447E-1,-4.1428944E-1,9.125051E0,2.1759294E-1,1.2959343E-1,5.4835856E-1,2.3275039E-1,-9.254551E-2,-6.2572345E-2,-6.075792E-2,-2.9359167E-2,-5.4261316E-2,-2.1846518E-2,-1.3681591E-3,2.4633622E-2,-9.539924E-3,1.2882059E-2,2.2975562E-2,5.123559E-2,4.4157494E-2,8.225651E-2,8.745039E-2,1.3032724E-1],"split_indices":[7,7,7,9,9,9,4,7,7,9,4,7,9,7,9,0,0,0,0,0,0,0,0,0,0,0,0,0,0,0,0],"split_type":[0,0,0,0,0,0,0,0,0,0,0,0,0,0,0,0,0,0,0,0,0,0,0,0,0,0,0,0,0,0,0],"sum_hessian":[3.294E3,1.619E3,1.675E3,7.93E2,8.26E2,1.03E3,6.45E2,4.45E2,3.48E2,5.09E2,3.17E2,4.33E2,5.97E2,5.62E2,8.3E1,9.4E1,3.51E2,9.9E1,2.49E2,6.4E1,4.45E2,2.46E2,7.1E1,3.03E2,1.3E2,4.8E2,1.17E2,4.31E2,1.31E2,6E1,2.3E1],"tree_param":{"num_deleted":"0","num_feature":"16","num_nodes":"31","size_leaf_vector":"1"}},{"base_weights":[1.07006684E-1,-4.7118535E0,5.060573E0,-8.557581E0,-2.5432034E0,2.8682606E0,8.725255E0,-9.721801E0,-2.3700583E0,-4.8256044E0,-3.4741077E-1,3.840768E-1,4.529327E0,7.500786E0,1.310638E1,-7.900674E-2,-5.3128462E-2,-2.817671E-2,2.240964E-2,-4.9860265E-2,-2.2827271E-2,-1.2468397E-2,9.988111E-3,-3.4214256E-3,1.5574359E-2,2.4556642E-2,5.2124117E-2,4.2220548E-2,7.7598386E-2,8.479245E-2,1.589604E-1],"categories":[],"categories_nodes":[],"categories_segments":[],"categories_sizes":[],"default_left":[0,0,0,0,0,0,0,0,0,0,0,0,0,0,0,0,0,0,0,0,0,0,0,0,0,0,0,0,0,0,0],"id":30,"left_children":[1,3,5,7,9,11,13,15,17,19,21,23,25,27,29,-1,-1,-1,-1,-1,-1,-1,-1,-1,-1,-1,-1,-1,-1,-1,-1],"loss_changes":[7.9808586E4,1.4113219E4,1.3222719E4,4.377246E3,5.4324053E3,4.2576562E3,3.2299414E3,1.6451328E3,9.1023804E2,1.8897979E3,1.4105027E3,6.679322E2,1.819501E3,2.4927559E3,1.0671191E3,0E0,0E0,0E0,0E0,0E0,0E0,0E0,0E0,0E0,0E0,0E0,0E0,0E0,0E0,0E0,0E0],"parents":[2147483647,0,0,1,1,2,2,3,3,4,4,5,5,6,6,7,7,8,8,9,9,10,10,11,11,12,12,13,13,14,14],"right_children":[2,4,6,8,10,12,14,16,18,20,22,24,26,28,30,-1,-1,-1,-1,-1,-1,-1,-1,-1,-1,-1,-1,-1,-1,-1,-1],"split_conditions":[8.686657E-2,-1.8816431E-1,3.2204723E-1,-4.162435E0,-9.82618E-2,-1.4263609E-1,2.4407467E1,-8.6738974E-2,3.475251E-2,-6.1061017E-2,-3.1980345E0,3.39E2,1.3000162E1,3.475251E-2,8.828434E-1,-7.900674E-2,-5.3128462E-2,-2.817671E-2,2.240964E-2,-4.9860265E-2,-2.2827271E-2,-1.2468397E-2,9.988111E-3,-3.4214256E-3,1.5574359E-2,2.4556642E-2,5.2124117E-2,4.2220548E-2,7.7598386E-2,8.479245E-2,1.589604E-1],"split_indices":[7,7,7,5,9,9,5,9,9,7,5,0,5,9,7,0,0,0,0,0,0,0,0,0,0,0,0,0,0,0,0],"split_type":[0,0,0,0,0,0,0,0,0,0,0,0,0,0,0,0,0,0,0,0,0,0,0,0,0,0,0,0,0,0,0],"sum_hessian":[3.342E3,1.694E3,1.648E3,6.1E2,1.084E3,1.032E3,6.16E2,5.13E2,9.7E1,5.31E2,5.53E2,4.14E2,6.18E2,4.83E2,1.33E2,2.94E2,2.19E2,7.5E1,2.2E1,2.14E2,3.17E2,3.06E2,2.47E2,2.81E2,1.33E2,4.59E2,1.59E2,3.44E2,1.39E2,1.22E2,1.1E1],"tree_param":{"num_deleted":"0","num_feature":"16","num_nodes":"31","size_leaf_vector":"1"}},{"base_weights":[8.862569E-2,-4.4813843E0,5.012062E0,-8.578945E0,-2.207156E0,3.133235E0,9.718854E0,-1.0311183E1,-6.383078E0,-4.430171E0,2.9845595E-2,6.1710495E-1,4.722315E0,8.175267E0,1.3486603E1,-9.871543E-2,-6.670589E-2,-6.2524706E-2,-3.243947E-2,-4.7872E-2,-2.3317315E-2,-8.585815E-3,1.8269802E-2,-5.109068E-3,1.7477874E-2,2.8951798E-2,6.912675E-2,5.192251E-2,8.437447E-2,8.8115044E-2,1.7527656E-1],"categories":[],"categories_nodes":[],"categories_segments":[],"categories_sizes":[],"default_left":[0,0,0,0,0,0,0,0,0,0,0,0,0,0,0,0,0,0,0,0,0,0,0,0,0,0,0,0,0,0,0],"id":31,"left_children":[1,3,5,7,9,11,13,15,17,19,21,23,25,27,29,-1,-1,-1,-1,-1,-1,-1,-1,-1,-1,-1,-1,-1,-1,-1,-1],"loss_changes":[7.439443E4,1.5960395E4,1.4048258E4,2.2728477E3,5.4908154E3,4.548204E3,2.5514688E3,9.048789E2,1.1757705E3,1.445044E3,1.7880559E3,1.1204829E3,2.072753E3,8.796582E2,1.1199297E3,0E0,0E0,0E0,0E0,0E0,0E0,0E0,0E0,0E0,0E0,0E0,0E0,0E0,0E0,0E0,0E0],"parents":[2147483647,0,0,1,1,2,2,3,3,4,4,5,5,6,6,7,7,8,8,9,9,10,10,11,11,12,12,13,13,14,14],"right_children":[2,4,6,8,10,12,14,16,18,20,22,24,26,28,30,-1,-1,-1,-1,-1,-1,-1,-1,-1,-1,-1,-1,-1,-1,-1,-1],"split_conditions":[8.686657E-2,-1.8414532E-1,3.7533087E-1,-8.863147E-2,-9.82618E-2,-1.4263609E-1,5.2323184E0,-4.6347615E-1,-3.2986447E-1,-8.336613E-2,5.8796315E0,2.1759294E-1,2.0027494E-1,6.3920784E-1,8.828434E-1,-9.871543E-2,-6.670589E-2,-6.2524706E-2,-3.243947E-2,-4.7872E-2,-2.3317315E-2,-8.585815E-3,1.8269802E-2,-5.109068E-3,1.7477874E-2,2.8951798E-2,6.912675E-2,5.192251E-2,8.437447E-2,8.8115044E-2,1.7527656E-1],"split_indices":[7,7,7,6,6,6,4,7,7,7,4,7,6,7,7,0,0,0,0,0,0,0,0,0,0,0,0,0,0,0,0],"split_type":[0,0,0,0,0,0,0,0,0,0,0,0,0,0,0,0,0,0,0,0,0,0,0,0,0,0,0,0,0,0,0],"sum_hessian":[3.305E3,1.714E3,1.591E3,6.11E2,1.103E3,1.138E3,4.53E2,3.4E2,2.71E2,5.53E2,5.5E2,4.41E2,6.97E2,3.23E2,1.3E2,5.6E1,2.84E2,1.09E2,1.62E2,1.72E2,3.81E2,3.7E2,1.8E2,2.57E2,1.84E2,6.27E2,7E1,2.72E2,5.1E1,1.22E2,8E0],"tree_param":{"num_deleted":"0","num_feature":"16","num_nodes":"31","size_leaf_vector":"1"}},{"base_weights":[1.3405755E-1,-4.5907946E0,5.116447E0,-8.846252E0,-2.494292E0,3.2230248E0,9.67155E0,-9.955077E0,-2.5045044E0,-4.785637E0,-2.7483097E-1,6.747211E-1,4.865586E0,8.279376E0,1.314979E1,-8.051526E-2,-5.2925564E-2,-3.1475924E-2,2.075998E-2,-4.6539716E-2,-2.4042781E-2,-8.4045315E-3,2.3260696E-2,-4.4731405E-3,1.7185627E-2,2.6017725E-2,5.7685442E-2,5.1353954E-2,8.9871734E-2,1.2141081E-2,9.508435E-2],"categories":[],"categories_nodes":[],"categories_segments":[],"categories_sizes":[],"default_left":[0,0,0,0,0,0,0,0,0,0,0,0,0,0,0,0,0,0,0,0,0,0,0,0,0,0,0,0,0,0,0],"id":32,"left_children":[1,3,5,7,9,11,13,15,17,19,21,23,25,27,29,-1,-1,-1,-1,-1,-1,-1,-1,-1,-1,-1,-1,-1,-1,-1,-1],"loss_changes":[7.727105E4,1.5009207E4,1.375168E4,3.8841133E3,5.7416904E3,4.723584E3,2.1834922E3,1.6812344E3,9.219989E2,1.3776777E3,1.9159507E3,1.0397603E3,2.6353682E3,1.3725078E3,6.33E2,0E0,0E0,0E0,0E0,0E0,0E0,0E0,0E0,0E0,0E0,0E0,0E0,0E0,0E0,0E0,0E0],"parents":[2147483647,0,0,1,1,2,2,3,3,4,4,5,5,6,6,7,7,8,8,9,9,10,10,11,11,12,12,13,13,14,14],"right_children":[2,4,6,8,10,12,14,16,18,20,22,24,26,28,30,-1,-1,-1,-1,-1,-1,-1,-1,-1,-1,-1,-1,-1,-1,-1,-1],"split_conditions":[8.35452E-2,-2.0797774E-1,3.7017778E-1,-3.5634537E0,-1.0187228E-1,-1.4263609E-1,4.9651666E0,-7.206724E-2,6.0528655E0,-6.760425E-2,5.641001E0,2.1759294E-1,1.3000162E1,6.3920784E-1,-1.1145071E1,-8.051526E-2,-5.2925564E-2,-3.1475924E-2,2.075998E-2,-4.6539716E-2,-2.4042781E-2,-8.4045315E-3,2.3260696E-2,-4.4731405E-3,1.7185627E-2,2.6017725E-2,5.7685442E-2,5.1353954E-2,8.9871734E-2,1.2141081E-2,9.508435E-2],"split_indices":[8,8,8,5,6,6,4,6,4,8,5,8,5,8,5,0,0,0,0,0,0,0,0,0,0,0,0,0,0,0,0],"split_type":[0,0,0,0,0,0,0,0,0,0,0,0,0,0,0,0,0,0,0,0,0,0,0,0,0,0,0,0,0,0,0],"sum_hessian":[3.281E3,1.684E3,1.597E3,5.55E2,1.129E3,1.129E3,4.68E2,4.72E2,8.3E1,5.55E2,5.74E2,4.43E2,6.86E2,3.36E2,1.32E2,2.85E2,1.87E2,6.1E1,2.2E1,2.32E2,3.23E2,4.57E2,1.17E2,2.55E2,1.88E2,5.13E2,1.73E2,2.8E2,5.6E1,5E0,1.27E2],"tree_param":{"num_deleted":"0","num_feature":"16","num_nodes":"31","size_leaf_vector":"1"}},{"base_weights":[2.6385576E-2,-4.1675644E0,5.1565967E0,-7.3063583E0,-1.3115568E0,3.1028955E0,9.453376E0,-8.513832E0,-2.6215756E0,-3.0575163E0,1.5127169E0,7.9868025E-1,4.714523E0,8.065936E0,1.3241225E1,-7.537331E-2,-4.8050214E-2,-2.7261904E-2,1.7781433E-2,-3.391443E-2,-1.2493393E-2,4.4811736E-3,6.0433522E-2,-1.8684646E-3,1.4416957E-2,2.8507153E-2,7.427775E-2,5.1215783E-2,9.185832E-2,8.768083E-2,1.88724E-1],"categories":[],"categories_nodes":[],"categories_segments":[],"categories_sizes":[],"default_left":[0,0,0,0,0,0,0,0,0,0,0,0,0,0,0,0,0,0,0,0,0,0,0,0,0,0,0,0,0,0,0],"id":33,"left_children":[1,3,5,7,9,11,13,15,17,19,21,23,25,27,29,-1,-1,-1,-1,-1,-1,-1,-1,-1,-1,-1,-1,-1,-1,-1,-1],"loss_changes":[7.116169E4,1.6301574E4,1.3101293E4,4.8816797E3,4.7066953E3,3.7367607E3,2.441668E3,2.5003555E3,1.181691E3,1.3322163E3,2.2574482E3,5.5979675E2,2.2067305E3,1.2636406E3,9.996914E2,0E0,0E0,0E0,0E0,0E0,0E0,0E0,0E0,0E0,0E0,0E0,0E0,0E0,0E0,0E0,0E0],"parents":[2147483647,0,0,1,1,2,2,3,3,4,4,5,5,6,6,7,7,8,8,9,9,10,10,11,11,12,12,13,13,14,14],"right_children":[2,4,6,8,10,12,14,16,18,20,22,24,26,28,30,-1,-1,-1,-1,-1,-1,-1,-1,-1,-1,-1,-1,-1,-1,-1,-1],"split_conditions":[1.026984E-1,-1.1392626E-1,3.7017778E-1,-3.8486888E0,-3.9469857E-2,-1.2957297E-1,5.2323184E0,-2.951771E-1,6.0528655E0,-2.4142064E-1,1.1684576E1,2.1759294E-1,2.1878813E1,6.68587E-1,8.828434E-1,-7.537331E-2,-4.8050214E-2,-2.7261904E-2,1.7781433E-2,-3.391443E-2,-1.2493393E-2,4.4811736E-3,6.0433522E-2,-1.8684646E-3,1.4416957E-2,2.8507153E-2,7.427775E-2,5.1215783E-2,9.185832E-2,8.768083E-2,1.88724E-1],"split_indices":[7,7,7,5,6,6,4,7,4,6,5,7,5,7,7,0,0,0,0,0,0,0,0,0,0,0,0,0,0,0,0],"split_type":[0,0,0,0,0,0,0,0,0,0,0,0,0,0,0,0,0,0,0,0,0,0,0,0,0,0,0,0,0,0,0],"sum_hessian":[3.306E3,1.819E3,1.487E3,8.66E2,9.53E2,1.007E3,4.8E2,6.88E2,1.78E2,5.89E2,3.64E2,4.15E2,5.92E2,3.53E2,1.27E2,2.89E2,3.99E2,1.43E2,3.5E1,2.44E2,3.45E2,3.25E2,3.9E1,2.25E2,1.9E2,5.35E2,5.7E1,3.09E2,4.4E1,1.22E2,5E0],"tree_param":{"num_deleted":"0","num_feature":"16","num_nodes":"31","size_leaf_vector":"1"}},{"base_weights":[-5.824293E-2,-4.499662E0,5.113481E0,-7.881324E0,-1.8340636E0,2.722385E0,8.773993E0,-9.94745E0,-5.2839646E0,-3.9589553E0,5.096298E-1,5.500868E-1,4.2245917E0,7.7465262E0,1.5014117E1,-9.203202E-2,-6.2226947E-2,-6.567492E-2,-3.0296221E-2,-4.7828827E-2,-2.2809023E-2,-3.2238294E-3,2.538589E-2,-2.368324E-3,1.9174222E-2,2.6305776E-2,6.5409705E-2,4.8471235E-2,8.9266315E-2,9.469106E-2,1.5325962E-1],"categories":[],"categories_nodes":[],"categories_segments":[],"categories_sizes":[],"default_left":[0,0,0,0,0,0,0,0,0,0,0,0,0,0,0,0,0,0,0,0,0,0,0,0,0,0,0,0,0,0,0],"id":34,"left_children":[1,3,5,7,9,11,13,15,17,19,21,23,25,27,29,-1,-1,-1,-1,-1,-1,-1,-1,-1,-1,-1,-1,-1,-1,-1,-1],"loss_changes":[7.5257625E4,1.5874348E4,1.3226547E4,4.124125E3,4.916934E3,2.9874106E3,3.7402422E3,1.3694609E3,1.3193408E3,1.02174365E3,1.4230646E3,7.3249054E2,1.2632461E3,2.0470586E3,6.333535E2,0E0,0E0,0E0,0E0,0E0,0E0,0E0,0E0,0E0,0E0,0E0,0E0,0E0,0E0,0E0,0E0],"parents":[2147483647,0,0,1,1,2,2,3,3,4,4,5,5,6,6,7,7,8,8,9,9,10,10,11,11,12,12,13,13,14,14],"right_children":[2,4,6,8,10,12,14,16,18,20,22,24,26,28,30,-1,-1,-1,-1,-1,-1,-1,-1,-1,-1,-1,-1,-1,-1,-1,-1],"split_conditions":[9.735825E-2,-1.354698E-1,3.2204723E-1,-8.1804246E-2,-9.281894E-2,-1.4263609E-1,6.3920784E-1,-3.9835203E-1,-4.1682482E-1,-8.336613E-2,7.8247933E0,2.4391668E-1,2.1616796E-1,7.97267E0,8.828434E-1,-9.203202E-2,-6.2226947E-2,-6.567492E-2,-3.0296221E-2,-4.7828827E-2,-2.2809023E-2,-3.2238294E-3,2.538589E-2,-2.368324E-3,1.9174222E-2,2.6305776E-2,6.5409705E-2,4.8471235E-2,8.9266315E-2,9.469106E-2,1.5325962E-1],"split_indices":[7,7,7,6,6,6,7,7,7,7,4,7,6,4,7,0,0,0,0,0,0,0,0,0,0,0,0,0,0,0,0],"split_type":[0,0,0,0,0,0,0,0,0,0,0,0,0,0,0,0,0,0,0,0,0,0,0,0,0,0,0,0,0,0,0],"sum_hessian":[3.275E3,1.762E3,1.513E3,7.76E2,9.86E2,9.16E2,5.97E2,4.31E2,3.45E2,5.17E2,4.69E2,3.75E2,5.41E2,5.14E2,8.3E1,1.05E2,3.26E2,6.4E1,2.81E2,1E2,4.17E2,3.58E2,1.11E2,2.67E2,1.08E2,4.97E2,4.4E1,4.43E2,7.1E1,7E1,1.3E1],"tree_param":{"num_deleted":"0","num_feature":"16","num_nodes":"31","size_leaf_vector":"1"}},{"base_weights":[-3.986294E-2,-4.877595E0,4.714166E0,-8.43356E0,-2.6354923E0,2.1304631E0,8.15664E0,-9.438198E0,-1.4975952E0,-4.6367364E0,-5.8175194E-1,-2.087379E-2,3.6438365E0,7.127947E0,1.3600971E1,-7.930782E-2,-4.9855012E-2,-2.1640055E-2,1.1688367E-2,-3.4946095E-2,1.7671952E-2,-1.0622287E-2,2.412148E-2,-1.7063636E-2,4.5484332E-3,2.3177544E-2,8.29121E-2,4.536056E-2,8.808158E-2,8.105366E-2,1.2446507E-1],"categories":[],"categories_nodes":[],"categories_segments":[],"categories_sizes":[],"default_left":[0,0,0,0,0,0,0,0,0,0,0,0,0,0,0,0,0,0,0,0,0,0,0,0,0,0,0,0,0,0,0],"id":35,"left_children":[1,3,5,7,9,11,13,15,17,19,21,23,25,27,29,-1,-1,-1,-1,-1,-1,-1,-1,-1,-1,-1,-1,-1,-1,-1,-1],"loss_changes":[7.668668E4,1.3155766E4,1.4940391E4,4.4352812E3,4.1659673E3,3.1329067E3,3.9588203E3,2.3780703E3,4.1668982E2,1.3179678E3,1.8934312E3,6.465726E2,1.5062837E3,2.081752E3,8.0359375E2,0E0,0E0,0E0,0E0,0E0,0E0,0E0,0E0,0E0,0E0,0E0,0E0,0E0,0E0,0E0,0E0],"parents":[2147483647,0,0,1,1,2,2,3,3,4,4,5,5,6,6,7,7,8,8,9,9,10,10,11,11,12,12,13,13,14,14],"right_children":[2,4,6,8,10,12,14,16,18,20,22,24,26,28,30,-1,-1,-1,-1,-1,-1,-1,-1,-1,-1,-1,-1,-1,-1,-1,-1],"split_conditions":[7.0034094E-2,-1.8040192E-1,2.8520274E-1,-1.902376E0,-9.6913055E-2,-1.4263609E-1,1.20279476E-1,-9.82618E-2,2.5385723E-2,1.5003115E1,5.641001E0,1.0606413E-1,2.636019E1,6.3920784E-1,2.007559E1,-7.930782E-2,-4.9855012E-2,-2.1640055E-2,1.1688367E-2,-3.4946095E-2,1.7671952E-2,-1.0622287E-2,2.412148E-2,-1.7063636E-2,4.5484332E-3,2.3177544E-2,8.29121E-2,4.536056E-2,8.808158E-2,8.105366E-2,1.2446507E-1],"split_indices":[7,7,7,5,6,6,6,6,6,5,5,7,5,7,5,0,0,0,0,0,0,0,0,0,0,0,0,0,0,0,0],"split_type":[0,0,0,0,0,0,0,0,0,0,0,0,0,0,0,0,0,0,0,0,0,0,0,0,0,0,0,0,0,0,0],"sum_hessian":[3.333E3,1.652E3,1.681E3,6.38E2,1.014E3,9.61E2,7.2E2,5.57E2,8.1E1,5.13E2,5.01E2,3.97E2,5.64E2,6.07E2,1.13E2,3.05E2,2.52E2,5.4E1,2.7E1,4.89E2,2.4E1,4.07E2,9.4E1,8.6E1,3.11E2,5.43E2,2.1E1,5.44E2,6.3E1,7.8E1,3.5E1],"tree_param":{"num_deleted":"0","num_feature":"16","num_nodes":"31","size_leaf_vector":"1"}},{"base_weights":[-1.3649784E-1,-4.763956E0,4.7850313E0,-7.97655E0,-2.1263177E0,2.7252843E0,8.570616E0,-8.902261E0,-1.4740875E0,-3.7413237E0,5.3413826E-1,3.9327323E-1,4.200143E0,7.6248894E0,1.4013176E1,-7.441201E-2,-4.661341E-2,-2.633131E-2,4.5031193E-3,-3.8225245E-2,-1.866491E-2,-1.600697E-3,5.0140187E-2,-5.8938796E-3,1.7320253E-2,2.5282849E-2,6.8856E-2,4.504749E-2,8.0094285E-2,8.190021E-2,1.2980604E-1],"categories":[],"categories_nodes":[],"categories_segments":[],"categories_sizes":[],"default_left":[0,0,0,0,0,0,0,0,0,0,0,0,0,0,0,0,0,0,0,0,0,0,0,0,0,0,0,0,0,0,0],"id":36,"left_children":[1,3,5,7,9,11,13,15,17,19,21,23,25,27,29,-1,-1,-1,-1,-1,-1,-1,-1,-1,-1,-1,-1,-1,-1,-1,-1],"loss_changes":[7.536852E4,1.4436703E4,1.2482766E4,4.612824E3,4.0319155E3,3.572483E3,2.8218008E3,2.5499414E3,4.7156415E2,1.0646753E3,1.798068E3,1.0399974E3,2.079955E3,2.1318418E3,7.012744E2,0E0,0E0,0E0,0E0,0E0,0E0,0E0,0E0,0E0,0E0,0E0,0E0,0E0,0E0,0E0,0E0],"parents":[2147483647,0,0,1,1,2,2,3,3,4,4,5,5,6,6,7,7,8,8,9,9,10,10,11,11,12,12,13,13,14,14],"right_children":[2,4,6,8,10,12,14,16,18,20,22,24,26,28,30,-1,-1,-1,-1,-1,-1,-1,-1,-1,-1,-1,-1,-1,-1,-1,-1],"split_conditions":[8.686657E-2,-1.3882524E-1,3.342507E-1,-1.5084962E0,-3.9469857E-2,-1.4263609E-1,8.279098E0,-8.6738974E-2,3.0504055E0,-4.363955E-2,1.1109563E1,2.1759294E-1,2.2322046E1,2.4407467E1,2.2311336E-1,-7.441201E-2,-4.661341E-2,-2.633131E-2,4.5031193E-3,-3.8225245E-2,-1.866491E-2,-1.600697E-3,5.0140187E-2,-5.8938796E-3,1.7320253E-2,2.5282849E-2,6.8856E-2,4.504749E-2,8.0094285E-2,8.190021E-2,1.2980604E-1],"split_indices":[7,7,7,5,6,6,4,6,5,7,5,7,5,5,6,0,0,0,0,0,0,0,0,0,0,0,0,0,0,0,0],"split_type":[0,0,0,0,0,0,0,0,0,0,0,0,0,0,0,0,0,0,0,0,0,0,0,0,0,0,0,0,0,0,0],"sum_hessian":[3.308E3,1.705E3,1.603E3,7.68E2,9.37E2,1.039E3,5.64E2,6.72E2,9.6E1,5.83E2,3.54E2,4.03E2,6.36E2,4.82E2,8.2E1,3.78E2,2.94E2,4.6E1,5E1,2.23E2,3.6E2,3.18E2,3.6E1,2.53E2,1.5E2,5.77E2,5.9E1,3.69E2,1.13E2,5.6E1,2.6E1],"tree_param":{"num_deleted":"0","num_feature":"16","num_nodes":"31","size_leaf_vector":"1"}},{"base_weights":[-4.125935E-2,-4.535832E0,4.6893263E0,-8.603586E0,-2.5155504E0,2.1457806E0,7.837055E0,-1.0354955E1,-4.484719E0,-4.06058E0,-5.5469077E-2,-8.056046E-2,3.631907E0,6.3429785E0,1.1066853E1,-7.904232E-2,-4.6967767E-2,-4.3174557E-2,6.42354E-4,-3.4261927E-2,-7.3237834E-3,-5.2467072E-3,3.998685E-2,-5.5531464E-3,1.5851565E-2,2.2132264E-2,6.357213E-2,3.9077602E-2,8.223531E-2,6.3621104E-2,9.979577E-2],"categories":[],"categories_nodes":[],"categories_segments":[],"categories_sizes":[],"default_left":[0,0,0,0,0,0,0,0,0,0,0,0,0,0,0,0,0,0,0,0,0,0,0,0,0,0,0,0,0,0,0],"id":37,"left_children":[1,3,5,7,9,11,13,15,17,19,21,23,25,27,29,-1,-1,-1,-1,-1,-1,-1,-1,-1,-1,-1,-1,-1,-1,-1,-1],"loss_changes":[6.972611E4,1.3799656E4,1.2775148E4,3.9834648E3,4.272646E3,2.9290803E3,3.3866953E3,1.2727578E3,1.2950715E3,1.729831E3,1.7406914E3,5.9336255E2,1.3338047E3,1.9587207E3,1.3163613E3,0E0,0E0,0E0,0E0,0E0,0E0,0E0,0E0,0E0,0E0,0E0,0E0,0E0,0E0,0E0,0E0],"parents":[2147483647,0,0,1,1,2,2,3,3,4,4,5,5,6,6,7,7,8,8,9,9,10,10,11,11,12,12,13,13,14,14],"right_children":[2,4,6,8,10,12,14,16,18,20,22,24,26,28,30,-1,-1,-1,-1,-1,-1,-1,-1,-1,-1,-1,-1,-1,-1,-1,-1],"split_conditions":[8.686657E-2,-2.0797774E-1,2.8520274E-1,-1.068642E1,-3.9469857E-2,-1.4263609E-1,4.9036667E-1,4.032626E-2,3.582252E0,5.641001E0,8.662551E0,3.6E2,2.2322046E1,8.279098E0,3.3416885E-3,-7.904232E-2,-4.6967767E-2,-4.3174557E-2,6.42354E-4,-3.4261927E-2,-7.3237834E-3,-5.2467072E-3,3.998685E-2,-5.5531464E-3,1.5851565E-2,2.2132264E-2,6.357213E-2,3.9077602E-2,8.223531E-2,6.3621104E-2,9.979577E-2],"split_indices":[7,7,7,5,6,6,7,6,4,5,5,0,5,4,6,0,0,0,0,0,0,0,0,0,0,0,0,0,0,0,0],"split_type":[0,0,0,0,0,0,0,0,0,0,0,0,0,0,0,0,0,0,0,0,0,0,0,0,0,0,0,0,0,0,0],"sum_hessian":[3.278E3,1.681E3,1.597E3,5.57E2,1.124E3,8.84E2,7.13E2,3.9E2,1.67E2,6.9E2,4.34E2,3.54E2,5.3E2,4.89E2,2.24E2,3.09E2,8.1E1,1.22E2,4.5E1,5.4E2,1.5E2,3.88E2,4.6E1,2.72E2,8.2E1,4.89E2,4.1E1,4.3E2,5.9E1,1.4E2,8.4E1],"tree_param":{"num_deleted":"0","num_feature":"16","num_nodes":"31","size_leaf_vector":"1"}},{"base_weights":[1.4082135E-1,-4.3464684E0,4.8299775E0,-8.027784E0,-2.35972E0,2.5891304E0,8.4604225E0,-9.099567E0,-2.2240987E0,-4.516737E0,-3.1673715E-1,1.2367477E0,5.51361E0,7.245119E0,1.2558814E1,-8.4143706E-2,-5.4632798E-2,-2.6512578E-2,1.1051663E-2,-4.9124632E-2,-2.388025E-2,-9.2693465E-3,1.2423024E-2,5.7048397E-3,3.85428E-2,2.9020028E-2,5.3823505E-2,4.3998588E-2,8.7857865E-2,5.8683466E-2,9.990296E-2],"categories":[],"categories_nodes":[],"categories_segments":[],"categories_sizes":[],"default_left":[0,0,0,0,0,0,0,0,0,0,0,0,0,0,0,0,0,0,0,0,0,0,0,0,0,0,0,0,0,0,0],"id":38,"left_children":[1,3,5,7,9,11,13,15,17,19,21,23,25,27,29,-1,-1,-1,-1,-1,-1,-1,-1,-1,-1,-1,-1,-1,-1,-1,-1],"loss_changes":[6.990852E4,1.2398393E4,1.3196664E4,3.6795195E3,4.860309E3,3.969457E3,3.0136914E3,1.8227148E3,5.6229114E2,1.4618516E3,1.1975604E3,1.2338805E3,9.1743164E2,2.3784375E3,9.121953E2,0E0,0E0,0E0,0E0,0E0,0E0,0E0,0E0,0E0,0E0,0E0,0E0,0E0,0E0,0E0,0E0],"parents":[2147483647,0,0,1,1,2,2,3,3,4,4,5,5,6,6,7,7,8,8,9,9,10,10,11,11,12,12,13,13,14,14],"right_children":[2,4,6,8,10,12,14,16,18,20,22,24,26,28,30,-1,-1,-1,-1,-1,-1,-1,-1,-1,-1,-1,-1,-1,-1,-1,-1],"split_conditions":[8.686657E-2,-1.8816431E-1,3.2204723E-1,-3.3887322E0,-1.0554488E-1,-6.0793697E-3,2.4407467E1,-4.0864387E-1,3.475251E-2,-8.666114E-2,9.297552E-2,2.1592512E1,7.0757775E0,1.3423163E-1,-1.1652997E-1,-8.4143706E-2,-5.4632798E-2,-2.6512578E-2,1.1051663E-2,-4.9124632E-2,-2.388025E-2,-9.2693465E-3,1.2423024E-2,5.7048397E-3,3.85428E-2,2.9020028E-2,5.3823505E-2,4.3998588E-2,8.7857865E-2,5.8683466E-2,9.990296E-2],"split_indices":[7,7,7,5,6,6,5,7,6,7,6,5,5,6,6,0,0,0,0,0,0,0,0,0,0,0,0,0,0,0,0],"split_type":[0,0,0,0,0,0,0,0,0,0,0,0,0,0,0,0,0,0,0,0,0,0,0,0,0,0,0,0,0,0,0],"sum_hessian":[3.321E3,1.697E3,1.624E3,5.94E2,1.103E3,1.005E3,6.19E2,5.01E2,9.3E1,5.36E2,5.67E2,6.88E2,3.17E2,4.79E2,1.4E2,1.52E2,3.49E2,6.6E1,2.7E1,1.63E2,3.73E2,3.83E2,1.84E2,6.27E2,6.1E1,1.96E2,1.21E2,4.07E2,7.2E1,4.2E1,9.8E1],"tree_param":{"num_deleted":"0","num_feature":"16","num_nodes":"31","size_leaf_vector":"1"}},{"base_weights":[-7.345979E-2,-4.571195E0,4.7469683E0,-7.6219673E0,-2.0216918E0,2.2594757E0,7.777765E0,-8.709167E0,-1.8027496E0,-4.2181053E0,2.402289E-1,1.310721E0,5.8822937E0,7.0841074E0,1.4897386E1,-7.1962826E-2,-4.5037203E-2,-1.8202776E-2,1.8336924E-2,-3.070746E-2,5.357851E-2,-3.6870204E-3,3.0071674E-2,-9.572197E-4,1.6352087E-2,3.2174617E-2,5.8538333E-2,4.0122587E-2,7.038455E-2,9.211941E-2,1.5599607E-1],"categories":[],"categories_nodes":[],"categories_segments":[],"categories_sizes":[],"default_left":[0,0,0,0,0,0,0,0,0,0,0,0,0,0,0,0,0,0,0,0,0,0,0,0,0,0,0,0,0,0,0],"id":39,"left_children":[1,3,5,7,9,11,13,15,17,19,21,23,25,27,29,-1,-1,-1,-1,-1,-1,-1,-1,-1,-1,-1,-1,-1,-1,-1,-1],"loss_changes":[7.0059625E4,1.2986887E4,1.17415E4,4.796551E3,4.5320684E3,2.9391226E3,3.3862773E3,2.2363555E3,4.3044766E2,9.482041E2,1.402217E3,1.0115116E3,5.3368994E2,2.5302246E3,5.7110547E2,0E0,0E0,0E0,0E0,0E0,0E0,0E0,0E0,0E0,0E0,0E0,0E0,0E0,0E0,0E0,0E0],"parents":[2147483647,0,0,1,1,2,2,3,3,4,4,5,5,6,6,7,7,8,8,9,9,10,10,11,11,12,12,13,13,14,14],"right_children":[2,4,6,8,10,12,14,16,18,20,22,24,26,28,30,-1,-1,-1,-1,-1,-1,-1,-1,-1,-1,-1,-1,-1,-1,-1,-1],"split_conditions":[8.35452E-2,-1.3882524E-1,2.8520274E-1,-1.902376E0,-9.6913055E-2,6.1371468E-2,6.68587E-1,-7.492475E-2,1.0764227E1,2.2740137E1,7.2506757E0,-1.7592248E-1,7.7446313E0,1.1458834E-2,8.828434E-1,-7.1962826E-2,-4.5037203E-2,-1.8202776E-2,1.8336924E-2,-3.070746E-2,5.357851E-2,-3.6870204E-3,3.0071674E-2,-9.572197E-4,1.6352087E-2,3.2174617E-2,5.8538333E-2,4.0122587E-2,7.038455E-2,9.211941E-2,1.5599607E-1],"split_indices":[7,7,7,5,6,6,7,6,5,5,5,6,5,6,7,0,0,0,0,0,0,0,0,0,0,0,0,0,0,0,0],"split_type":[0,0,0,0,0,0,0,0,0,0,0,0,0,0,0,0,0,0,0,0,0,0,0,0,0,0,0,0,0,0,0],"sum_hessian":[3.23E3,1.671E3,1.559E3,7.6E2,9.11E2,8.57E2,7.02E2,6.4E2,1.2E2,4.62E2,4.49E2,6.8E2,1.77E2,6.41E2,6.1E1,3.77E2,2.63E2,1.02E2,1.8E1,4.56E2,6E0,3.78E2,7.1E1,2.82E2,3.98E2,1.18E2,5.9E1,4.42E2,1.99E2,5.1E1,1E1],"tree_param":{"num_deleted":"0","num_feature":"16","num_nodes":"31","size_leaf_vector":"1"}},{"base_weights":[-8.129787E-3,-4.62562E0,4.4658637E0,-8.406035E0,-2.6258566E0,2.2331386E0,8.251465E0,-1.0308426E1,-6.164309E0,-4.662539E0,-6.265343E-1,-1.9762251E-1,3.9577923E0,7.399439E0,1.4232872E1,-9.094202E-2,-6.684421E-2,-6.656583E-2,-3.3903558E-2,-4.3471314E-2,-2.3658808E-2,-1.07776765E-2,9.989022E-3,-5.6188814E-3,1.7413076E-2,2.0934634E-2,4.8025995E-2,3.873158E-2,6.810312E-2,6.562891E-2,1.1241204E-1],"categories":[],"categories_nodes":[],"categories_segments":[],"categories_sizes":[],"default_left":[0,0,0,0,0,0,0,0,0,0,0,0,0,0,0,0,0,0,0,0,0,0,0,0,0,0,0,0,0,0,0],"id":40,"left_children":[1,3,5,7,9,11,13,15,17,19,21,23,25,27,29,-1,-1,-1,-1,-1,-1,-1,-1,-1,-1,-1,-1,-1,-1,-1,-1],"loss_changes":[6.820216E4,1.2261809E4,1.4153789E4,2.3432148E3,4.326693E3,4.4281045E3,3.0846445E3,5.1953516E2,1.1084688E3,1.0262812E3,1.0098354E3,7.133139E2,1.7151562E3,2.327705E3,5.632822E2,0E0,0E0,0E0,0E0,0E0,0E0,0E0,0E0,0E0,0E0,0E0,0E0,0E0,0E0,0E0,0E0],"parents":[2147483647,0,0,1,1,2,2,3,3,4,4,5,5,6,6,7,7,8,8,9,9,10,10,11,11,12,12,13,13,14,14],"right_children":[2,4,6,8,10,12,14,16,18,20,22,24,26,28,30,-1,-1,-1,-1,-1,-1,-1,-1,-1,-1,-1,-1,-1,-1,-1,-1],"split_conditions":[6.614536E-2,-2.0797774E-1,3.17148E-1,-9.82618E-2,-9.6913055E-2,-1.4263609E-1,6.3920784E-1,-4.6347615E-1,-4.1682482E-1,-7.135203E-2,4.37234E0,3.93E2,1.0168832E-1,-3.672412E-2,-1.2761748E-1,-9.094202E-2,-6.684421E-2,-6.656583E-2,-3.3903558E-2,-4.3471314E-2,-2.3658808E-2,-1.07776765E-2,9.989022E-3,-5.6188814E-3,1.7413076E-2,2.0934634E-2,4.8025995E-2,3.873158E-2,6.810312E-2,6.562891E-2,1.1241204E-1],"split_indices":[7,7,7,6,6,6,7,7,7,7,3,0,6,6,6,0,0,0,0,0,0,0,0,0,0,0,0,0,0,0,0],"split_type":[0,0,0,0,0,0,0,0,0,0,0,0,0,0,0,0,0,0,0,0,0,0,0,0,0,0,0,0,0,0,0],"sum_hessian":[3.3E3,1.624E3,1.676E3,5.61E2,1.063E3,1.055E3,6.21E2,3.02E2,2.59E2,5.26E2,5.37E2,4.38E2,6.17E2,5.45E2,7.6E1,6.4E1,2.38E2,7.2E1,1.87E2,2.37E2,2.89E2,3.72E2,1.65E2,3.58E2,8E1,4.64E2,1.53E2,3.04E2,2.41E2,2.2E1,5.4E1],"tree_param":{"num_deleted":"0","num_feature":"16","num_nodes":"31","size_leaf_vector":"1"}},{"base_weights":[-6.8794854E-2,-4.5693364E0,4.2032294E0,-7.8447742E0,-2.434895E0,2.4052942E0,9.0762615E0,-9.0094795E0,-2.2703953E0,-4.2604156E0,-5.936361E-1,1.6451098E-1,3.9498453E0,5.464494E0,1.0659389E1,-7.3312625E-2,-4.8367325E-2,-2.8333897E-2,-1.5583911E-4,-3.1307228E-2,3.2413628E-2,-8.770267E-3,2.3037761E-2,-8.598467E-3,1.6955946E-2,2.0687623E-2,4.6964508E-2,2.9036634E-2,5.072358E-2,6.3899636E-2,1.0536501E-1],"categories":[],"categories_nodes":[],"categories_segments":[],"categories_sizes":[],"default_left":[0,0,0,0,0,0,0,0,0,0,0,0,0,0,0,0,0,0,0,0,0,0,0,0,0,0,0,0,0,0,0],"id":41,"left_children":[1,3,5,7,9,11,13,15,17,19,21,23,25,27,29,-1,-1,-1,-1,-1,-1,-1,-1,-1,-1,-1,-1,-1,-1,-1,-1],"loss_changes":[6.3550914E4,1.1235402E4,1.4835811E4,4.1009805E3,3.2753936E3,4.2880913E3,2.562961E3,1.5539727E3,4.4020496E2,9.3748145E2,1.2482922E3,1.5960819E3,1.9948037E3,3.035127E2,2.0224805E3,0E0,0E0,0E0,0E0,0E0,0E0,0E0,0E0,0E0,0E0,0E0,0E0,0E0,0E0,0E0,0E0],"parents":[2147483647,0,0,1,1,2,2,3,3,4,4,5,5,6,6,7,7,8,8,9,9,10,10,11,11,12,12,13,13,14,14],"right_children":[2,4,6,8,10,12,14,16,18,20,22,24,26,28,30,-1,-1,-1,-1,-1,-1,-1,-1,-1,-1,-1,-1,-1,-1,-1,-1],"split_conditions":[6.614536E-2,-1.8040192E-1,3.7017778E-1,-3.5634537E0,-9.6913055E-2,-1.4263609E-1,-1.5205279E-1,-9.82618E-2,2.8867052E0,2.0408289E1,7.2506757E0,2.1759294E-1,1.3000162E1,2.8E2,2.636019E1,-7.3312625E-2,-4.8367325E-2,-2.8333897E-2,-1.5583911E-4,-3.1307228E-2,3.2413628E-2,-8.770267E-3,2.3037761E-2,-8.598467E-3,1.6955946E-2,2.0687623E-2,4.6964508E-2,2.9036634E-2,5.072358E-2,6.3899636E-2,1.0536501E-1],"split_indices":[7,7,7,5,6,6,6,6,5,5,5,7,5,0,5,0,0,0,0,0,0,0,0,0,0,0,0,0,0,0,0],"split_type":[0,0,0,0,0,0,0,0,0,0,0,0,0,0,0,0,0,0,0,0,0,0,0,0,0,0,0,0,0,0,0],"sum_hessian":[3.304E3,1.609E3,1.695E3,6.34E2,9.75E2,1.239E3,4.56E2,5.24E2,1.1E2,4.89E2,4.86E2,5.06E2,7.33E2,1.4E2,3.16E2,3.07E2,2.17E2,6.1E1,4.9E1,4.78E2,1.1E1,4.16E2,7E1,3.13E2,1.93E2,5.4E2,1.93E2,8.2E1,5.8E1,2.36E2,8E1],"tree_param":{"num_deleted":"0","num_feature":"16","num_nodes":"31","size_leaf_vector":"1"}},{"base_weights":[4.9210865E-2,-4.140344E0,4.9122806E0,-7.9528217E0,-2.0171947E0,2.4143715E0,7.674027E0,-9.213816E0,-1.6715888E0,-3.2930176E0,1.1554431E0,5.0384223E-1,4.1168666E0,5.578629E0,1.00168295E1,-7.5383745E-2,-5.0176926E-2,-2.07739E-2,1.1120221E-2,-4.0861603E-2,-1.7137038E-2,2.380941E-3,5.5975977E-2,-1.2204604E-3,1.9566802E-2,2.6984133E-2,8.211163E-2,3.4963183E-2,7.694785E-2,5.8669727E-2,1.01662606E-1],"categories":[],"categories_nodes":[],"categories_segments":[],"categories_sizes":[],"default_left":[0,0,0,0,0,0,0,0,0,0,0,0,0,0,0,0,0,0,0,0,0,0,0,0,0,0,0,0,0,0,0],"id":42,"left_children":[1,3,5,7,9,11,13,15,17,19,21,23,25,27,29,-1,-1,-1,-1,-1,-1,-1,-1,-1,-1,-1,-1,-1,-1,-1,-1],"loss_changes":[6.712051E4,1.4308648E4,1.0500391E4,4.9952305E3,4.608765E3,2.6039102E3,3.5062266E3,1.6133516E3,4.5478906E2,1.7308408E3,1.8161516E3,5.9013525E2,8.060469E2,1.1669287E3,2.4151836E3,0E0,0E0,0E0,0E0,0E0,0E0,0E0,0E0,0E0,0E0,0E0,0E0,0E0,0E0,0E0,0E0],"parents":[2147483647,0,0,1,1,2,2,3,3,4,4,5,5,6,6,7,7,8,8,9,9,10,10,11,11,12,12,13,13,14,14],"right_children":[2,4,6,8,10,12,14,16,18,20,22,24,26,28,30,-1,-1,-1,-1,-1,-1,-1,-1,-1,-1,-1,-1,-1,-1,-1,-1],"split_conditions":[9.735825E-2,-1.8040192E-1,2.8520274E-1,-3.5634537E0,1.1458834E-2,-1.0187228E-1,-4.7658917E-2,-9.82618E-2,5.641001E0,-2.9771212E-1,1.0163699E1,3.69E2,2.7133438E1,6.3920784E-1,2.1592512E1,-7.5383745E-2,-5.0176926E-2,-2.07739E-2,1.1120221E-2,-4.0861603E-2,-1.7137038E-2,2.380941E-3,5.5975977E-2,-1.2204604E-3,1.9566802E-2,2.6984133E-2,8.211163E-2,3.4963183E-2,7.694785E-2,5.8669727E-2,1.01662606E-1],"split_indices":[7,7,7,5,9,9,9,9,5,9,5,0,5,7,5,0,0,0,0,0,0,0,0,0,0,0,0,0,0,0,0],"split_type":[0,0,0,0,0,0,0,0,0,0,0,0,0,0,0,0,0,0,0,0,0,0,0,0,0,0,0,0,0,0,0],"sum_hessian":[3.293E3,1.769E3,1.524E3,6.32E2,1.137E3,8.01E2,7.23E2,5.26E2,1.06E2,8.11E2,3.26E2,3.78E2,4.23E2,3.83E2,3.4E2,2.97E2,2.29E2,7.6E1,3E1,2.01E2,6.1E2,2.92E2,3.4E1,2.92E2,8.6E1,4.1E2,1.3E1,3.47E2,3.6E1,2.51E2,8.9E1],"tree_param":{"num_deleted":"0","num_feature":"16","num_nodes":"31","size_leaf_vector":"1"}},{"base_weights":[-4.626828E-2,-4.39524E0,4.469715E0,-7.4108143E0,-1.4920857E0,2.2210848E0,7.4349957E0,-8.85616E0,-3.920898E0,-3.0357552E0,1.0785455E0,8.350973E-1,5.237132E0,5.9375176E0,1.0695033E1,-7.681522E-2,-5.0973743E-2,-3.725699E-2,-1.5145325E-4,-2.680299E-2,-2.8603033E-3,1.595631E-3,4.9586285E-2,2.5396617E-3,4.0507033E-2,2.8608179E-2,5.5462066E-2,3.5408784E-2,7.842129E-2,6.433975E-2,1.032227E-1],"categories":[],"categories_nodes":[],"categories_segments":[],"categories_sizes":[],"default_left":[0,0,0,0,0,0,0,0,0,0,0,0,0,0,0,0,0,0,0,0,0,0,0,0,0,0,0,0,0,0,0],"id":43,"left_children":[1,3,5,7,9,11,13,15,17,19,21,23,25,27,29,-1,-1,-1,-1,-1,-1,-1,-1,-1,-1,-1,-1,-1,-1,-1,-1],"loss_changes":[6.4524562E4,1.4640566E4,1.0730246E4,4.109289E3,3.3908674E3,3.8301006E3,3.339125E3,1.8678477E3,1.3181035E3,1.1090093E3,1.63336E3,1.468091E3,8.635503E2,2.1639219E3,1.2202578E3,0E0,0E0,0E0,0E0,0E0,0E0,0E0,0E0,0E0,0E0,0E0,0E0,0E0,0E0,0E0,0E0],"parents":[2147483647,0,0,1,1,2,2,3,3,4,4,5,5,6,6,7,7,8,8,9,9,10,10,11,11,12,12,13,13,14,14],"right_children":[2,4,6,8,10,12,14,16,18,20,22,24,26,28,30,-1,-1,-1,-1,-1,-1,-1,-1,-1,-1,-1,-1,-1,-1,-1,-1],"split_conditions":[8.686657E-2,-1.1869642E-1,2.9498234E-1,-8.34165E0,-3.9469857E-2,-6.0793697E-3,1.1458834E-2,-3.2026708E-1,2.8867052E0,5.7488055E0,8.662551E0,2.1592512E1,7.412321E0,2.7745771E1,2.1592512E1,-7.681522E-2,-5.0973743E-2,-3.725699E-2,-1.5145325E-4,-2.680299E-2,-2.8603033E-3,1.595631E-3,4.9586285E-2,2.5396617E-3,4.0507033E-2,2.8608179E-2,5.5462066E-2,3.5408784E-2,7.842129E-2,6.433975E-2,1.032227E-1],"split_indices":[7,7,7,5,6,6,6,7,5,5,5,5,4,5,5,0,0,0,0,0,0,0,0,0,0,0,0,0,0,0,0],"split_type":[0,0,0,0,0,0,0,0,0,0,0,0,0,0,0,0,0,0,0,0,0,0,0,0,0,0,0,0,0,0,0],"sum_hessian":[3.284E3,1.673E3,1.611E3,8.2E2,8.53E2,9.17E2,6.94E2,5.79E2,2.41E2,5.33E2,3.2E2,6.29E2,2.88E2,4.77E2,2.17E2,2.45E2,3.34E2,1.77E2,6.4E1,4.09E2,1.24E2,2.81E2,3.9E1,5.75E2,5.4E1,2.03E2,8.5E1,4.1E2,6.7E1,1.6E2,5.7E1],"tree_param":{"num_deleted":"0","num_feature":"16","num_nodes":"31","size_leaf_vector":"1"}},{"base_weights":[1.8442672E-3,-4.0361805E0,4.7281194E0,-7.2542696E0,-1.6601223E0,2.9927447E0,8.7603035E0,-9.327113E0,-4.750225E0,-3.2534323E0,9.454806E-1,6.490038E-1,4.406784E0,5.578818E0,1.0160607E1,-8.165553E-2,-5.4142497E-2,-4.1199178E-2,-4.129625E-3,-3.9941445E-2,-1.6748074E-2,1.3663764E-3,4.113494E-2,-2.0782286E-3,1.7173082E-2,2.7031828E-2,6.658495E-2,2.8061444E-2,5.0077528E-2,6.525794E-2,1.1140769E-1],"categories":[],"categories_nodes":[],"categories_segments":[],"categories_sizes":[],"default_left":[0,0,0,0,0,0,0,0,0,0,0,0,0,0,0,0,0,0,0,0,0,0,0,0,0,0,0,0,0,0,0],"id":44,"left_children":[1,3,5,7,9,11,13,15,17,19,21,23,25,27,29,-1,-1,-1,-1,-1,-1,-1,-1,-1,-1,-1,-1,-1,-1,-1,-1],"loss_changes":[6.2243285E4,1.3434846E4,1.0490871E4,3.8380195E3,4.207504E3,3.4809707E3,1.9652305E3,1.4457617E3,1.5989082E3,1.3138359E3,1.4194049E3,6.785981E2,1.7926406E3,3.2005127E2,1.3927188E3,0E0,0E0,0E0,0E0,0E0,0E0,0E0,0E0,0E0,0E0,0E0,0E0,0E0,0E0,0E0,0E0],"parents":[2147483647,0,0,1,1,2,2,3,3,4,4,5,5,6,6,7,7,8,8,9,9,10,10,11,11,12,12,13,13,14,14],"right_children":[2,4,6,8,10,12,14,16,18,20,22,24,26,28,30,-1,-1,-1,-1,-1,-1,-1,-1,-1,-1,-1,-1,-1,-1,-1,-1],"split_conditions":[9.735825E-2,-1.3882524E-1,3.6658147E-1,-1.3649511E1,-3.9469857E-2,-1.4263609E-1,-1.5205279E-1,3.084507E0,4.8174076E0,-3.0436093E-1,8.465078E0,2.4391668E-1,2.2322046E1,2.76E2,3.1846851E1,-8.165553E-2,-5.4142497E-2,-4.1199178E-2,-4.129625E-3,-3.9941445E-2,-1.6748074E-2,1.3663764E-3,4.113494E-2,-2.0782286E-3,1.7173082E-2,2.7031828E-2,6.658495E-2,2.8061444E-2,5.0077528E-2,6.525794E-2,1.1140769E-1],"split_indices":[8,8,8,5,9,9,9,3,4,9,5,8,5,0,5,0,0,0,0,0,0,0,0,0,0,0,0,0,0,0,0],"split_type":[0,0,0,0,0,0,0,0,0,0,0,0,0,0,0,0,0,0,0,0,0,0,0,0,0,0,0,0,0,0,0],"sum_hessian":[3.26E3,1.758E3,1.502E3,7.46E2,1.012E3,1.051E3,4.51E2,4.07E2,3.39E2,6.28E2,3.84E2,3.96E2,6.55E2,1.39E2,3.12E2,1.63E2,2.44E2,2.66E2,7.3E1,1.62E2,4.66E2,3.34E2,5E1,2.6E2,1.36E2,5.93E2,6.2E1,7.1E1,6.8E1,2.74E2,3.8E1],"tree_param":{"num_deleted":"0","num_feature":"16","num_nodes":"31","size_leaf_vector":"1"}},{"base_weights":[-4.0267337E-2,-4.489805E0,4.2113757E0,-7.7752576E0,-2.352111E0,1.9016274E0,7.4105735E0,-1.2527746E1,-6.7413406E0,-3.598073E0,6.771857E-1,9.5606107E-1,5.441447E0,5.131828E0,9.447983E0,-9.550335E-2,-7.8451306E-2,-5.929666E-2,-3.2206103E-2,-3.560428E-2,-1.7176531E-2,-4.211031E-3,1.6185682E-2,-1.1008905E-3,1.5001242E-2,3.3195976E-2,5.740446E-2,2.7022569E-2,5.22199E-2,6.0457066E-2,1.0388262E-1],"categories":[],"categories_nodes":[],"categories_segments":[],"categories_sizes":[],"default_left":[0,0,0,0,0,0,0,0,0,0,0,0,0,0,0,0,0,0,0,0,0,0,0,0,0,0,0,0,0,0,0],"id":45,"left_children":[1,3,5,7,9,11,13,15,17,19,21,23,25,27,29,-1,-1,-1,-1,-1,-1,-1,-1,-1,-1,-1,-1,-1,-1,-1,-1],"loss_changes":[6.2474156E4,1.1315742E4,1.2463945E4,3.0555156E3,3.697105E3,3.2790798E3,3.2448047E3,4.7728516E1,1.9053145E3,1.168958E3,5.9915173E2,1.0262922E3,3.653706E2,9.6813574E2,1.5299336E3,0E0,0E0,0E0,0E0,0E0,0E0,0E0,0E0,0E0,0E0,0E0,0E0,0E0,0E0,0E0,0E0],"parents":[2147483647,0,0,1,1,2,2,3,3,4,4,5,5,6,6,7,7,8,8,9,9,10,10,11,11,12,12,13,13,14,14],"right_children":[2,4,6,8,10,12,14,16,18,20,22,24,26,28,30,-1,-1,-1,-1,-1,-1,-1,-1,-1,-1,-1,-1,-1,-1,-1,-1],"split_conditions":[6.614536E-2,-1.8040192E-1,2.8520274E-1,-4.6347615E-1,1.1458834E-2,6.1371468E-2,-7.6079555E-2,-1.4076267E-1,-8.1804246E-2,-6.1061017E-2,5.701238E0,-1.4263609E-1,2.432901E-1,4.4849968E-1,6.3920784E-1,-9.550335E-2,-7.8451306E-2,-5.929666E-2,-3.2206103E-2,-3.560428E-2,